{"learner":{"attributes":{"best_iteration":"19","best_score":"0.960657440454929"},"feature_names":["poc","vah","val","va_width","va_skew","mom","atr","poc_delta_1","poc_delta_3"],"feature_types":["float","float","float","float","float","float","float","float","float"],"gradient_booster":{"model":{"gbtree_model_param":{"num_parallel_tree":"1","num_trees":"120"},"iteration_indptr":[0,3,6,9,12,15,18,21,24,27,30,33,36,39,42,45,48,51,54,57,60,63,66,69,72,75,78,81,84,87,90,93,96,99,102,105,108,111,114,117,120],"tree_info":[0,1,2,0,1,2,0,1,2,0,1,2,0,1,2,0,1,2,0,1,2,0,1,2,0,1,2,0,1,2,0,1,2,0,1,2,0,1,2,0,1,2,0,1,2,0,1,2,0,1,2,0,1,2,0,1,2,0,1,2,0,1,2,0,1,2,0,1,2,0,1,2,0,1,2,0,1,2,0,1,2,0,1,2,0,1,2,0,1,2,0,1,2,0,1,2,0,1,2,0,1,2,0,1,2,0,1,2,0,1,2,0,1,2,0,1,2,0,1,2],"trees":[{"base_weights":[-9.068751E-2,4.572317E-1,-3.4018433E-1,8.5026735E-1,2.941176E-1,-2.1531734E-1,-4.8441496E-1,-4.0000004E-1,9.4285715E-1,-1.5415025E-1,3.9187995E-1,-5.405406E-1,-1.5910254E-1,-5.420394E-1,-1.3494815E-1,-2.5544848E-9,-5.454546E-2,7.64543E-2,1.265896E-1,-5.1428575E-2,9.554136E-3,4.1266967E-2,-3.2432437E-2,-6.566038E-2,-7.792212E-3,1.9047616E-2,-1.953959E-2,-5.8646627E-2,-4.2331293E-2,1.0047843E-2,-6.741574E-2],"categories":[],"categories_nodes":[],"categories_segments":[],"categories_sizes":[],"default_left":[0,0,0,0,0,0,0,0,0,0,0,0,0,0,0,0,0,0,0,0,0,0,0,0,0,0,0,0,0,0,0],"id":0,"left_children":[1,3,5,7,9,11,13,15,17,19,21,23,25,27,29,-1,-1,-1,-1,-1,-1,-1,-1,-1,-1,-1,-1,-1,-1,-1,-1],"loss_changes":[9.361557E1,1.3490757E1,8.366234E0,7.592972E0,6.7654343E0,4.555687E0,4.30571E0,2.9090917E-1,2.3923073E0,2.5769658E0,2.0082836E0,1.9354763E0,2.8016577E0,7.345848E-1,4.1440563E0,0E0,0E0,0E0,0E0,0E0,0E0,0E0,0E0,0E0,0E0,0E0,0E0,0E0,0E0,0E0,0E0],"parents":[2147483647,0,0,1,1,2,2,3,3,4,4,5,5,6,6,7,7,8,8,9,9,10,10,11,11,12,12,13,13,14,14],"right_children":[2,4,6,8,10,12,14,16,18,20,22,24,26,28,30,-1,-1,-1,-1,-1,-1,-1,-1,-1,-1,-1,-1,-1,-1,-1,-1],"split_conditions":[-1.21735844E-4,-4.554094E-4,1.3158009E-4,-3.42E0,1.0269285E0,9.039286E-1,2.4097142E0,3.3032E3,2.3652143E0,3.32935E3,3.99E0,3.34228E3,3.29522E3,4.8E-1,3.33653E3,-2.5544848E-9,-5.454546E-2,7.64543E-2,1.265896E-1,-5.1428575E-2,9.554136E-3,4.1266967E-2,-3.2432437E-2,-6.566038E-2,-7.792212E-3,1.9047616E-2,-1.953959E-2,-5.8646627E-2,-4.2331293E-2,1.0047843E-2,-6.741574E-2],"split_indices":[5,5,5,8,6,6,6,0,6,1,3,0,0,7,0,0,0,0,0,0,0,0,0,0,0,0,0,0,0,0,0],"split_type":[0,0,0,0,0,0,0,0,0,0,0,0,0,0,0,0,0,0,0,0,0,0,0,0,0,0,0,0,0,0,0],"sum_hessian":[6.826666E2,2.1333331E2,4.693333E2,6.133333E1,1.5199998E2,2.5288887E2,2.1644443E2,3.9999998E0,5.733333E1,2.7111109E1,1.2488888E2,3.5999996E1,2.1688887E2,1.8533333E2,3.1111109E1,1.3333333E0,2.6666665E0,3.9111107E1,1.8222221E1,1.0666666E1,1.6444443E1,1.2177777E2,3.111111E0,2.8444443E1,7.5555553E0,1.9999998E1,1.9688887E2,1.3199998E2,5.333333E1,2.2222221E1,8.888888E0],"tree_param":{"num_deleted":"0","num_feature":"9","num_nodes":"31","size_leaf_vector":"1"}},{"base_weights":[1.682106E-1,7.528957E-1,8.3565414E-2,8.630137E-1,1.3953485E-1,1.3984388E-1,-3.261869E-1,8.9302325E-1,-4.2857148E-2,-5.454546E-2,3.4285712E-1,-3.5294124E-1,2.0553827E-1,-2.1980204E-1,-6.4968157E-1,1.0352645E-1,6.420233E-2,6.521739E-2,-2.0000003E-2,-4.1850075E-9,-4.6153855E-2,2.2764836E-2,-2.341464E-2,-4.1214064E-2,8.955221E-3,-7.0344836E-2,-2.5544848E-9],"categories":[],"categories_nodes":[],"categories_segments":[],"categories_sizes":[],"default_left":[0,0,0,0,0,0,0,0,0,0,0,0,0,0,0,0,0,0,0,0,0,0,0,0,0,0,0],"id":1,"left_children":[1,3,5,7,9,11,13,15,-1,-1,17,19,21,23,25,-1,-1,-1,-1,-1,-1,-1,-1,-1,-1,-1,-1],"loss_changes":[3.3772274E1,5.7107086E0,1.3843315E1,3.2121925E0,2.1832678E0,1.7126038E1,2.3541946E0,1.8940201E0,0E0,0E0,2.089441E0,2.3891397E0,4.578102E0,3.3755617E0,6.093559E-1,0E0,0E0,0E0,0E0,0E0,0E0,0E0,0E0,0E0,0E0,0E0,0E0],"parents":[2147483647,0,0,1,1,2,2,3,3,4,4,5,5,6,6,7,7,10,10,11,11,12,12,13,13,14,14],"right_children":[2,4,6,8,10,12,14,16,-1,-1,18,20,22,24,26,-1,-1,-1,-1,-1,-1,-1,-1,-1,-1,-1,-1],"split_conditions":[9.505E-1,1.7983538E-4,3.9360538E-4,3.35202E3,-3.275862E-1,-4.554094E-4,7.4174214E-4,8.66E-1,-4.2857148E-2,-5.454546E-2,3.33977E3,-2.5420874E-1,2.809E0,1.53E0,3.42E0,1.0352645E-1,6.420233E-2,6.521739E-2,-2.0000003E-2,-4.1850075E-9,-4.6153855E-2,2.2764836E-2,-2.341464E-2,-4.1214064E-2,8.955221E-3,-7.0344836E-2,-2.5544848E-9],"split_indices":[6,5,5,0,4,5,5,6,0,0,1,4,6,3,8,0,0,0,0,0,0,0,0,0,0,0,0],"split_type":[0,0,0,0,0,0,0,0,0,0,0,0,0,0,0,0,0,0,0,0,0,0,0,0,0,0,0],"sum_hessian":[6.826666E2,8.533333E1,5.973333E2,7.199999E1,1.3333332E1,5.257778E2,7.155555E1,7.0666664E1,1.3333333E0,2.6666665E0,1.0666666E1,6.133333E1,4.6444443E2,5.5111107E1,1.6444443E1,4.3111107E1,2.7555553E1,6.666666E0,3.9999998E0,1.4666666E1,4.6666664E1,4.4266663E2,2.1777777E1,3.3777775E1,2.1333332E1,1.5111111E1,1.3333333E0],"tree_param":{"num_deleted":"0","num_feature":"9","num_nodes":"27","size_leaf_vector":"1"}},{"base_weights":[-7.752321E-2,-2.965393E-1,4.7903502E-1,-4.93776E-1,-1.0614777E-1,2.321981E-1,7.797695E-1,6E-2,-5.0441253E-1,-4.8000005E-1,-1.951224E-2,4.225348E-2,4.241164E-1,5.964912E-1,1.0938628E0,-2.1546965E-2,-5.28521E-2,-6.489797E-2,-2.3809528E-2,-4.1052636E-2,5.16252E-3,-6.474825E-3,5.3932585E-2,7.692307E-2,3.0563E-2,-2.8767128E-2,7.282851E-2,2.3999998E-2,1.137931E-1],"categories":[],"categories_nodes":[],"categories_segments":[],"categories_sizes":[],"default_left":[0,0,0,0,0,0,0,0,0,0,0,0,0,0,0,0,0,0,0,0,0,0,0,0,0,0,0,0,0],"id":2,"left_children":[1,3,5,7,9,11,13,-1,15,17,19,21,23,25,27,-1,-1,-1,-1,-1,-1,-1,-1,-1,-1,-1,-1,-1,-1],"loss_changes":[8.347774E1,1.8394062E1,1.4178772E1,3.10643E0,8.127441E0,3.9069438E0,4.3430176E0,0E0,1.552536E0,1.7757835E0,5.7234206E0,2.9720576E0,1.9503164E0,6.851555E0,8.8500977E-1,0E0,0E0,0E0,0E0,0E0,0E0,0E0,0E0,0E0,0E0,0E0,0E0,0E0,0E0],"parents":[2147483647,0,0,1,1,2,2,3,3,4,4,5,5,6,6,8,8,9,9,10,10,11,11,12,12,13,13,14,14],"right_children":[2,4,6,8,10,12,14,-1,16,18,20,22,24,26,28,-1,-1,-1,-1,-1,-1,-1,-1,-1,-1,-1,-1,-1,-1],"split_conditions":[1.6895345E-4,-8.892133E-5,3.485598E-4,-6.84E0,9.5664287E-1,-9E-2,5.6210783E-4,6E-2,-3.8372093E-1,3.33463E3,3.30009E3,3.1269243E-4,-2.1538462E-1,-9.4E-1,5.2E-1,-2.1546965E-2,-5.28521E-2,-6.489797E-2,-2.3809528E-2,-4.1052636E-2,5.16252E-3,-6.474825E-3,5.3932585E-2,7.692307E-2,3.0563E-2,-2.8767128E-2,7.282851E-2,2.3999998E-2,1.137931E-1],"split_indices":[5,5,5,8,6,8,5,0,4,0,0,5,4,7,3,0,0,0,0,0,0,0,0,0,0,0,0,0,0],"split_type":[0,0,0,0,0,0,0,0,0,0,0,0,0,0,0,0,0,0,0,0,0,0,0,0,0,0,0,0,0],"sum_hessian":[6.826666E2,4.902222E2,1.9244443E2,2.3999998E2,2.5022221E2,1.0666666E2,8.577777E1,1.7777777E0,2.3822221E2,4.622222E1,2.0399998E2,5.4222218E1,5.2444443E1,5.5999996E1,2.9777777E1,1.911111E1,2.191111E2,2.6222221E1,1.9999998E1,3.0666664E1,1.7333333E2,4.5333332E1,8.888888E0,1.1999999E1,4.0444443E1,7.1111107E0,4.8888885E1,1.7777777E0,2.7999998E1],"tree_param":{"num_deleted":"0","num_feature":"9","num_nodes":"29","size_leaf_vector":"1"}},{"base_weights":[-8.455423E-2,4.1602033E-1,-3.211577E-1,7.5867784E-1,2.7030376E-1,-2.0203155E-1,-4.6072236E-1,-3.9053902E-1,8.3993E-1,-1.4460893E-1,3.5859033E-1,-4.6810204E-1,-1.3867477E-1,-5.1777935E-1,-1.20321095E-1,-5.3713065E-2,7.132962E-4,6.7960486E-2,1.1290636E-1,-4.983331E-2,9.640708E-3,3.938902E-2,-5.496902E-3,-5.3934243E-2,-9.513512E-3,9.098689E-2,-1.5924744E-2,-5.6236435E-2,-3.9944224E-2,1.0530551E-2,-6.519331E-2],"categories":[],"categories_nodes":[],"categories_segments":[],"categories_sizes":[],"default_left":[0,0,0,0,0,0,0,0,0,0,0,0,0,0,0,0,0,0,0,0,0,0,0,0,0,0,0,0,0,0,0],"id":3,"left_children":[1,3,5,7,9,11,13,15,17,19,21,23,25,27,29,-1,-1,-1,-1,-1,-1,-1,-1,-1,-1,-1,-1,-1,-1,-1,-1],"loss_changes":[8.066318E1,1.0713085E1,7.5924644E0,6.3685303E0,5.728801E0,4.169245E0,4.0569916E0,2.9264468E-1,2.048111E0,2.426877E0,1.8913269E0,1.2210388E0,4.551693E0,7.321358E-1,3.8768568E0,0E0,0E0,0E0,0E0,0E0,0E0,0E0,0E0,0E0,0E0,0E0,0E0,0E0,0E0,0E0,0E0],"parents":[2147483647,0,0,1,1,2,2,3,3,4,4,5,5,6,6,7,7,8,8,9,9,10,10,11,11,12,12,13,13,14,14],"right_children":[2,4,6,8,10,12,14,16,18,20,22,24,26,28,30,-1,-1,-1,-1,-1,-1,-1,-1,-1,-1,-1,-1,-1,-1,-1,-1],"split_conditions":[-1.21735844E-4,-4.554094E-4,1.3158009E-4,-3.42E0,1.0269285E0,9.6442854E-1,2.4097142E0,-3.292683E-1,2.3652143E0,3.32935E3,2.93E0,3.34292E3,9.7657144E-1,4.8E-1,3.33653E3,-5.3713065E-2,7.132962E-4,6.7960486E-2,1.1290636E-1,-4.983331E-2,9.640708E-3,3.938902E-2,-5.496902E-3,-5.3934243E-2,-9.513512E-3,9.098689E-2,-1.5924744E-2,-5.6236435E-2,-3.9944224E-2,1.0530551E-2,-6.519331E-2],"split_indices":[5,5,5,8,6,6,6,4,6,1,8,1,6,7,0,0,0,0,0,0,0,0,0,0,0,0,0,0,0,0,0],"split_type":[0,0,0,0,0,0,0,0,0,0,0,0,0,0,0,0,0,0,0,0,0,0,0,0,0,0,0,0,0,0,0],"sum_hessian":[6.7893195E2,2.1766551E2,4.612664E2,6.3689926E1,1.5397559E2,2.5017543E2,2.1109097E2,3.954309E0,5.973562E1,2.6903172E1,1.2707242E2,4.6886116E1,2.032893E2,1.803416E2,3.0749382E1,2.6330242E0,1.3212847E0,4.058284E1,1.9152777E1,1.0469745E1,1.6433428E1,1.1712282E2,9.949603E0,3.8992146E1,7.8939724E0,3.0800314E0,2.0020927E2,1.2826427E2,5.207733E1,2.215028E1,8.599103E0],"tree_param":{"num_deleted":"0","num_feature":"9","num_nodes":"31","size_leaf_vector":"1"}},{"base_weights":[1.5451743E-1,6.7359245E-1,7.7097125E-2,7.692425E-1,1.2506454E-1,1.2840317E-1,-3.0592215E-1,7.9617906E-1,-4.247686E-2,-5.351266E-2,3.168855E-1,-3.3198252E-1,1.8800779E-1,-2.0381737E-1,-6.233158E-1,1.3371575E-2,8.3368324E-2,6.035037E-2,-1.969642E-2,9.282914E-4,-4.389005E-2,4.0714256E-2,1.447419E-2,-3.915683E-2,9.252808E-3,-6.776983E-2,1.0374176E-3],"categories":[],"categories_nodes":[],"categories_segments":[],"categories_sizes":[],"default_left":[0,0,0,0,0,0,0,0,0,0,0,0,0,0,0,0,0,0,0,0,0,0,0,0,0,0,0],"id":4,"left_children":[1,3,5,7,9,11,13,15,-1,-1,17,19,21,23,25,-1,-1,-1,-1,-1,-1,-1,-1,-1,-1,-1,-1],"loss_changes":[2.7629677E1,4.587723E0,1.1840752E1,2.776886E0,1.9994919E0,1.4614704E1,2.181569E0,1.7394714E0,0E0,0E0,1.8604052E0,2.2352457E0,4.398691E0,3.1177528E0,5.8781385E-1,0E0,0E0,0E0,0E0,0E0,0E0,0E0,0E0,0E0,0E0,0E0,0E0],"parents":[2147483647,0,0,1,1,2,2,3,3,4,4,5,5,6,6,7,7,10,10,11,11,12,12,13,13,14,14],"right_children":[2,4,6,8,10,12,14,16,-1,-1,18,20,22,24,26,-1,-1,-1,-1,-1,-1,-1,-1,-1,-1,-1,-1],"split_conditions":[9.505E-1,1.7983538E-4,3.9360538E-4,3.35202E3,-3.275862E-1,-4.554094E-4,7.4174214E-4,3.30802E3,-4.247686E-2,-5.351266E-2,3.33977E3,-2.5420874E-1,3.29974E3,1.53E0,3.42E0,1.3371575E-2,8.3368324E-2,6.035037E-2,-1.969642E-2,9.282914E-4,-4.389005E-2,4.0714256E-2,1.447419E-2,-3.915683E-2,9.252808E-3,-6.776983E-2,1.0374176E-3],"split_indices":[6,5,5,0,4,5,5,0,0,0,1,4,2,3,8,0,0,0,0,0,0,0,0,0,0,0,0],"split_type":[0,0,0,0,0,0,0,0,0,0,0,0,0,0,0,0,0,0,0,0,0,0,0,0,0,0,0],"sum_hessian":[6.8782104E2,8.827419E1,5.995469E2,7.482426E1,1.3449936E1,5.2930975E2,7.023714E1,7.349933E1,1.3249296E0,2.625167E0,1.0824769E1,6.0149055E1,4.691607E2,5.438407E1,1.5853064E1,4.182698E0,6.931663E1,6.836814E0,3.9879549E0,1.4566919E1,4.5582134E1,7.597077E1,3.931899E2,3.3095165E1,2.1288906E1,1.4536143E1,1.3169205E0],"tree_param":{"num_deleted":"0","num_feature":"9","num_nodes":"27","size_leaf_vector":"1"}},{"base_weights":[-7.195334E-2,-2.78859E-1,4.348275E-1,-4.690502E-1,-9.905849E-2,2.119358E-1,7.005526E-1,5.5972256E-2,-4.7953358E-1,-4.5666122E-1,-1.8092407E-2,3.351778E-2,3.9025813E-1,5.6769377E-1,1.043884E0,-1.9629886E-2,-5.0348777E-2,-6.264886E-2,-2.1686556E-2,-3.924897E-2,4.8732334E-3,-6.806433E-3,4.978803E-2,9.680916E-2,3.243409E-2,-2.2296568E-2,6.789269E-2,1.1288804E-1,5.201152E-2],"categories":[],"categories_nodes":[],"categories_segments":[],"categories_sizes":[],"default_left":[0,0,0,0,0,0,0,0,0,0,0,0,0,0,0,0,0,0,0,0,0,0,0,0,0,0,0,0,0],"id":5,"left_children":[1,3,5,7,9,11,13,-1,15,17,19,21,23,25,27,-1,-1,-1,-1,-1,-1,-1,-1,-1,-1,-1,-1,-1,-1],"loss_changes":[7.144572E1,1.6491707E1,1.1554516E1,2.8002167E0,7.226387E0,3.4513774E0,3.4991035E0,0E0,1.4814644E0,1.7410288E0,5.1425533E0,2.65304E0,1.7567654E0,6.0321484E0,4.7394753E-1,0E0,0E0,0E0,0E0,0E0,0E0,0E0,0E0,0E0,0E0,0E0,0E0,0E0,0E0],"parents":[2147483647,0,0,1,1,2,2,3,3,4,4,5,5,6,6,8,8,9,9,10,10,11,11,12,12,13,13,14,14],"right_children":[2,4,6,8,10,12,14,-1,16,18,20,22,24,26,28,-1,-1,-1,-1,-1,-1,-1,-1,-1,-1,-1,-1,-1,-1],"split_conditions":[1.6895345E-4,-8.892133E-5,3.485598E-4,-6.84E0,9.5664287E-1,-9E-2,6.515496E-4,5.5972256E-2,-3.8372093E-1,3.33463E3,3.30009E3,3.1269243E-4,1.7617267E-4,-9.4E-1,1.25E0,-1.9629886E-2,-5.0348777E-2,-6.264886E-2,-2.1686556E-2,-3.924897E-2,4.8732334E-3,-6.806433E-3,4.978803E-2,9.680916E-2,3.243409E-2,-2.2296568E-2,6.789269E-2,1.1288804E-1,5.201152E-2],"split_indices":[5,5,5,8,6,8,5,0,4,0,0,5,5,7,7,0,0,0,0,0,0,0,0,0,0,0,0,0,0],"split_type":[0,0,0,0,0,0,0,0,0,0,0,0,0,0,0,0,0,0,0,0,0,0,0,0,0,0,0,0,0],"sum_hessian":[6.792146E2,4.8262207E2,1.9659248E2,2.3375238E2,2.488697E2,1.0789072E2,8.8701775E1,1.8294603E0,2.3192291E2,4.5088272E1,2.0378143E2,5.4524708E1,5.3366005E1,6.586681E1,2.283496E1,1.8802029E1,2.1312088E2,2.5450909E1,1.9637365E1,3.012537E1,1.7365607E2,4.5438244E1,9.086466E0,4.0630097E0,4.9302998E1,7.999662E0,5.786715E1,1.8652727E1,4.1822333E0],"tree_param":{"num_deleted":"0","num_feature":"9","num_nodes":"29","size_leaf_vector":"1"}},{"base_weights":[-7.891873E-2,3.80515E-1,-3.0333543E-1,6.8321246E-1,2.4966027E-1,-1.8943094E-1,-4.3881854E-1,-3.8123056E-1,7.5579566E-1,-1.3472141E-1,3.2961735E-1,-4.9618876E-1,-1.3833383E-1,-4.9563795E-1,-1.0520983E-1,5.6824967E-4,-5.2559346E-2,6.084875E-2,1.0219582E-1,-4.835164E-2,9.897402E-3,3.4853313E-2,-3.3052478E-2,-6.1413627E-2,-4.458204E-3,1.8476268E-2,-1.7265365E-2,-6.421253E-2,-4.547566E-2,1.1158597E-2,-6.317013E-2],"categories":[],"categories_nodes":[],"categories_segments":[],"categories_sizes":[],"default_left":[0,0,0,0,0,0,0,0,0,0,0,0,0,0,0,0,0,0,0,0,0,0,0,0,0,0,0,0,0,0,0],"id":6,"left_children":[1,3,5,7,9,11,13,15,17,19,21,23,25,27,29,-1,-1,-1,-1,-1,-1,-1,-1,-1,-1,-1,-1,-1,-1,-1,-1],"loss_changes":[6.973266E1,8.623692E0,6.925915E0,5.420994E0,4.8570185E0,3.8264818E0,3.865631E0,2.7699864E-1,1.8298187E0,2.303597E0,1.7374649E0,1.8420563E0,2.4093556E0,7.639885E-1,3.6486237E0,0E0,0E0,0E0,0E0,0E0,0E0,0E0,0E0,0E0,0E0,0E0,0E0,0E0,0E0,0E0,0E0],"parents":[2147483647,0,0,1,1,2,2,3,3,4,4,5,5,6,6,7,7,8,8,9,9,10,10,11,11,12,12,13,13,14,14],"right_children":[2,4,6,8,10,12,14,16,18,20,22,24,26,28,30,-1,-1,-1,-1,-1,-1,-1,-1,-1,-1,-1,-1,-1,-1,-1,-1],"split_conditions":[-1.21735844E-4,-4.554094E-4,1.3158009E-4,-3.42E0,1.0269285E0,9.039286E-1,2.4097142E0,2.46E0,2.3652143E0,3.32935E3,3.99E0,3.34228E3,3.29522E3,1.8588798E-4,3.33653E3,5.6824967E-4,-5.2559346E-2,6.084875E-2,1.0219582E-1,-4.835164E-2,9.897402E-3,3.4853313E-2,-3.3052478E-2,-6.1413627E-2,-4.458204E-3,1.8476268E-2,-1.7265365E-2,-6.421253E-2,-4.547566E-2,1.1158597E-2,-6.317013E-2],"split_indices":[5,5,5,8,6,6,6,3,6,1,3,0,0,5,0,0,0,0,0,0,0,0,0,0,0,0,0,0,0,0,0],"split_type":[0,0,0,0,0,0,0,0,0,0,0,0,0,0,0,0,0,0,0,0,0,0,0,0,0,0,0,0,0,0,0],"sum_hessian":[6.7420966E2,2.2102466E2,4.53185E2,6.5435646E1,1.5558902E2,2.4750157E2,2.0568344E2,3.9056964E0,6.1529945E1,2.66738E1,1.2891522E2,3.409628E1,2.1340529E2,1.753351E2,3.0348333E1,1.3223221E0,2.5833743E0,4.172392E1,1.9806026E1,1.02726555E1,1.6401144E1,1.2578305E2,3.1321683E0,2.6750006E1,7.3462725E0,2.0070673E1,1.9333463E2,3.5046875E1,1.4028822E2,2.2054789E1,8.293544E0],"tree_param":{"num_deleted":"0","num_feature":"9","num_nodes":"31","size_leaf_vector":"1"}},{"base_weights":[1.4225663E-1,6.0639167E-1,7.14545E-2,6.909199E-1,1.1139873E-1,1.05952874E-1,-4.2286465E-1,7.1548307E-1,-4.2073335E-2,-5.272737E-2,2.9399827E-1,-3.1179234E-1,1.5535015E-1,-7.947087E-2,-5.531358E-1,8.382174E-2,5.0029524E-2,5.6159355E-2,-1.9402979E-2,1.74242E-3,-4.170098E-2,1.7515352E-2,-2.5434548E-2,1.9806018E-2,-5.5393267E-2,-6.1204594E-2,2.1214425E-3],"categories":[],"categories_nodes":[],"categories_segments":[],"categories_sizes":[],"default_left":[0,0,0,0,0,0,0,0,0,0,0,0,0,0,0,0,0,0,0,0,0,0,0,0,0,0,0],"id":7,"left_children":[1,3,5,7,9,11,13,15,-1,-1,17,19,21,23,25,-1,-1,-1,-1,-1,-1,-1,-1,-1,-1,-1,-1],"loss_changes":[2.2716213E1,3.7528992E0,1.0311696E1,2.430626E0,1.8510743E0,1.1678061E1,1.7219834E0,1.6057053E0,0E0,0E0,1.6697979E0,2.0830927E0,4.1389313E0,1.6931186E0,9.7563744E-1,0E0,0E0,0E0,0E0,0E0,0E0,0E0,0E0,0E0,0E0,0E0,0E0],"parents":[2147483647,0,0,1,1,2,2,3,3,4,4,5,5,6,6,7,7,10,10,11,11,12,12,13,13,14,14],"right_children":[2,4,6,8,10,12,14,16,-1,-1,18,20,22,24,26,-1,-1,-1,-1,-1,-1,-1,-1,-1,-1,-1,-1],"split_conditions":[9.505E-1,1.7983538E-4,5.1113724E-4,3.35202E3,-3.275862E-1,-4.554094E-4,-2.1367522E-1,8.66E-1,-4.2073335E-2,-5.272737E-2,3.33977E3,-2.5420874E-1,2.809E0,7.4174214E-4,3.42E0,8.382174E-2,5.0029524E-2,5.6159355E-2,-1.9402979E-2,1.74242E-3,-4.170098E-2,1.7515352E-2,-2.5434548E-2,1.9806018E-2,-5.5393267E-2,-6.1204594E-2,2.1214425E-3],"split_indices":[6,5,5,0,4,5,4,6,0,0,1,4,6,5,8,0,0,0,0,0,0,0,0,0,0,0,0],"split_type":[0,0,0,0,0,0,0,0,0,0,0,0,0,0,0,0,0,0,0,0,0,0,0,0,0,0,0],"sum_hessian":[6.915847E2,9.053416E1,6.010506E2,7.699087E1,1.3543287E1,5.6257434E2,3.8476223E1,7.5675125E1,1.3157434E0,2.591497E0,1.0951791E1,5.8926865E1,5.036475E2,1.1024849E1,2.7451372E1,4.6345993E1,2.9329132E1,6.975983E0,3.9758072E0,1.4473842E1,4.4453022E1,4.8097137E2,2.2676123E1,7.323569E0,3.7012799E0,2.4838137E1,2.6132367E0],"tree_param":{"num_deleted":"0","num_feature":"9","num_nodes":"27","size_leaf_vector":"1"}},{"base_weights":[-6.694682E-2,-2.6243815E-1,3.9666587E-1,-4.4611263E-1,-9.254887E-2,1.9403283E-1,6.3468665E-1,5.262471E-2,-4.5646054E-1,-4.34944E-1,-1.6865144E-2,2.6026575E-2,3.603837E-1,1.7751126E-1,7.149517E-1,-1.7768E-2,-4.8037793E-2,-6.0609676E-2,-1.9697193E-2,-3.748476E-2,4.576914E-3,-4.4763446E-2,1.1502103E-2,6.635984E-2,2.5516525E-2,6.565186E-2,-1.8185863E-2,8.410382E-2,4.79739E-2],"categories":[],"categories_nodes":[],"categories_segments":[],"categories_sizes":[],"default_left":[0,0,0,0,0,0,0,0,0,0,0,0,0,0,0,0,0,0,0,0,0,0,0,0,0,0,0,0,0],"id":8,"left_children":[1,3,5,7,9,11,13,-1,15,17,19,21,23,25,27,-1,-1,-1,-1,-1,-1,-1,-1,-1,-1,-1,-1,-1,-1],"loss_changes":[6.1347187E1,1.4809174E1,9.562635E0,2.538498E0,6.432088E0,3.0625148E0,3.245617E0,0E0,1.42519E0,1.7111664E0,4.603585E0,2.4020803E0,1.5902162E0,2.7111876E0,1.9053421E0,0E0,0E0,0E0,0E0,0E0,0E0,0E0,0E0,0E0,0E0,0E0,0E0,0E0,0E0],"parents":[2147483647,0,0,1,1,2,2,3,3,4,4,5,5,6,6,8,8,9,9,10,10,11,11,12,12,13,13,14,14],"right_children":[2,4,6,8,10,12,14,-1,16,18,20,22,24,26,28,-1,-1,-1,-1,-1,-1,-1,-1,-1,-1,-1,-1,-1,-1],"split_conditions":[1.6895345E-4,-8.892133E-5,3.485598E-4,-6.84E0,9.5664287E-1,-9E-2,-2.9347825E-1,5.262471E-2,-3.8372093E-1,3.33463E3,3.30009E3,3.3007E3,-2.1538462E-1,-4.076923E-1,1.53E0,-1.7768E-2,-4.8037793E-2,-6.0609676E-2,-1.9697193E-2,-3.748476E-2,4.576914E-3,-4.4763446E-2,1.1502103E-2,6.635984E-2,2.5516525E-2,6.565186E-2,-1.8185863E-2,8.410382E-2,4.79739E-2],"split_indices":[5,5,5,8,6,8,4,0,4,0,0,0,4,4,3,0,0,0,0,0,0,0,0,0,0,0,0,0,0],"split_type":[0,0,0,0,0,0,0,0,0,0,0,0,0,0,0,0,0,0,0,0,0,0,0,0,0,0,0,0,0],"sum_hessian":[6.7473157E2,4.749103E2,1.9982127E2,2.2741571E2,2.474946E2,1.0891469E2,9.090659E1,1.8697071E0,2.25546E2,4.394399E1,2.0355061E2,5.476309E1,5.4151596E1,1.4056246E1,7.685035E1,1.8487331E1,2.0705867E2,2.4660732E1,1.9283255E1,2.9568563E1,1.7398204E2,8.024398E0,4.6738693E1,1.2583131E1,4.1568466E1,5.6707687E0,8.385477E0,4.8354244E1,2.8496103E1],"tree_param":{"num_deleted":"0","num_feature":"9","num_nodes":"29","size_leaf_vector":"1"}},{"base_weights":[-7.39289E-2,3.486047E-1,-2.8655377E-1,6.1975586E-1,2.3029149E-1,-1.7789917E-1,-4.1794226E-1,-3.7219426E-1,6.8550634E-1,-1.2562114E-1,3.027985E-1,-4.742689E-1,-1.2970309E-1,-4.7421554E-1,-9.3987726E-2,1.1567448E-3,-5.172203E-2,5.4785788E-2,9.358816E-2,-6.2890165E-2,3.4809865E-3,3.352206E-2,-7.883467E-3,-5.934714E-2,-2.991214E-3,1.703618E-2,-1.6212486E-2,-6.2359877E-2,-4.3276396E-2,1.134006E-2,-6.1427888E-2],"categories":[],"categories_nodes":[],"categories_segments":[],"categories_sizes":[],"default_left":[0,0,0,0,0,0,0,0,0,0,0,0,0,0,0,0,0,0,0,0,0,0,0,0,0,0,0,0,0,0,0],"id":9,"left_children":[1,3,5,7,9,11,13,15,17,19,21,23,25,27,29,-1,-1,-1,-1,-1,-1,-1,-1,-1,-1,-1,-1,-1,-1,-1,-1],"loss_changes":[6.0269493E1,7.064226E0,6.293911E0,4.667614E0,4.1153145E0,3.450976E0,3.6228828E0,2.7611905E-1,1.6860657E0,2.2379751E0,1.6541367E0,1.7842174E0,2.098716E0,7.899513E-1,3.416909E0,0E0,0E0,0E0,0E0,0E0,0E0,0E0,0E0,0E0,0E0,0E0,0E0,0E0,0E0,0E0,0E0],"parents":[2147483647,0,0,1,1,2,2,3,3,4,4,5,5,6,6,7,7,8,8,9,9,10,10,11,11,12,12,13,13,14,14],"right_children":[2,4,6,8,10,12,14,16,18,20,22,24,26,28,30,-1,-1,-1,-1,-1,-1,-1,-1,-1,-1,-1,-1,-1,-1,-1,-1],"split_conditions":[-1.21735844E-4,-4.554094E-4,1.3158009E-4,-3.42E0,1.0269285E0,9.039286E-1,2.4097142E0,3.3032E3,2.3652143E0,6.1E-1,2.93E0,3.34228E3,3.29522E3,1.8588798E-4,3.33653E3,1.1567448E-3,-5.172203E-2,5.4785788E-2,9.358816E-2,-6.2890165E-2,3.4809865E-3,3.352206E-2,-7.883467E-3,-5.934714E-2,-2.991214E-3,1.703618E-2,-1.6212486E-2,-6.2359877E-2,-4.3276396E-2,1.134006E-2,-6.1427888E-2],"split_indices":[5,5,5,8,6,6,6,0,6,3,8,0,0,5,0,0,0,0,0,0,0,0,0,0,0,0,0,0,0,0,0],"split_type":[0,0,0,0,0,0,0,0,0,0,0,0,0,0,0,0,0,0,0,0,0,0,0,0,0,0,0,0,0,0,0],"sum_hessian":[6.6873315E2,2.236502E2,4.4508298E2,6.665394E1,1.5699626E2,2.449063E2,2.0017668E2,3.8537238E0,6.2800217E1,2.6446539E1,1.3054973E2,3.3019672E1,2.1188663E2,1.7015556E2,3.002111E1,1.3093137E0,2.5444102E0,4.2579487E1,2.0220732E1,5.6867695E0,2.075977E1,1.20439285E2,1.0110438E1,2.5770847E1,7.2488227E0,2.0246824E1,1.916398E2,3.390929E1,1.3624628E2,2.202427E1,7.9968414E0],"tree_param":{"num_deleted":"0","num_feature":"9","num_nodes":"31","size_leaf_vector":"1"}},{"base_weights":[1.3138372E-1,5.435562E-1,6.535303E-2,6.180734E-1,1.1678866E-1,9.734725E-2,-4.0377825E-1,6.401342E-1,-4.162656E-2,-3.3797133E-1,4.1680872E-1,-2.9233354E-1,1.4242707E-1,4.552133E-2,-4.4589698E-1,7.598968E-2,4.433071E-2,-5.9486758E-2,3.764376E-2,-4.7221117E-2,6.2354058E-2,2.5599168E-3,-3.960693E-2,1.609907E-2,-2.450232E-2,2.956234E-2,-4.893663E-2],"categories":[],"categories_nodes":[],"categories_segments":[],"categories_sizes":[],"default_left":[0,0,0,0,0,0,0,0,0,0,0,0,0,0,0,0,0,0,0,0,0,0,0,0,0,0,0],"id":10,"left_children":[1,3,5,7,9,11,13,15,-1,17,19,21,23,-1,25,-1,-1,-1,-1,-1,-1,-1,-1,-1,-1,-1,-1],"loss_changes":[1.8884571E1,2.9761353E0,9.049912E0,2.1232567E0,2.253188E0,9.9282875E0,1.5966892E0,1.5505219E0,0E0,1.4547155E0,2.0911207E0,1.9456024E0,3.6725168E0,0E0,1.3446078E0,0E0,0E0,0E0,0E0,0E0,0E0,0E0,0E0,0E0,0E0,0E0,0E0],"parents":[2147483647,0,0,1,1,2,2,3,3,4,4,5,5,6,6,7,7,9,9,10,10,11,11,12,12,14,14],"right_children":[2,4,6,8,10,12,14,16,-1,18,20,22,24,-1,26,-1,-1,-1,-1,-1,-1,-1,-1,-1,-1,-1,-1],"split_conditions":[9.5664287E-1,1.7983538E-4,5.1113724E-4,3.35202E3,-1.9714285E-1,-4.554094E-4,-4.5454547E-1,8.66E-1,-4.162656E-2,1.36E0,6.890714E-1,-2.5420874E-1,2.809E0,4.552133E-2,4.5E-1,7.598968E-2,4.433071E-2,-5.9486758E-2,3.764376E-2,-4.7221117E-2,6.2354058E-2,2.5599168E-3,-3.960693E-2,1.609907E-2,-2.450232E-2,2.956234E-2,-4.893663E-2],"split_indices":[6,5,5,0,4,5,4,6,0,3,6,4,6,0,3,0,0,0,0,0,0,0,0,0,0,0,0],"split_type":[0,0,0,0,0,0,0,0,0,0,0,0,0,0,0,0,0,0,0,0,0,0,0,0,0,0,0],"sum_hessian":[6.9418176E2,9.48546E1,5.993272E2,8.037261E1,1.4481993E1,5.618052E2,3.7521984E1,7.9067345E1,1.3052669E0,5.706215E0,8.775778E0,5.768421E1,5.0412097E2,1.2953837E0,3.62266E1,4.737846E1,3.1688885E1,4.320076E0,1.3861389E0,1.4134164E0,7.3623614E0,1.4376347E1,4.3307865E1,4.8162952E2,2.2491463E1,1.6848528E0,3.4541748E1],"tree_param":{"num_deleted":"0","num_feature":"9","num_nodes":"27","size_leaf_vector":"1"}},{"base_weights":[-6.2365036E-2,-2.4742784E-1,3.6424974E-1,-4.250389E-1,-8.675651E-2,1.7719793E-1,5.8212847E-1,4.9325228E-2,-4.3522352E-1,-4.1391924E-1,-1.6278481E-2,1.8832773E-2,3.3285144E-1,4.6612644E-1,8.818616E-1,-1.617415E-2,-4.590648E-2,-5.86858E-2,-1.776069E-2,-3.5924353E-2,4.259874E-3,-7.6709925E-3,4.5004863E-2,8.728622E-2,2.7154252E-2,-2.3684595E-2,5.625492E-2,9.547713E-2,4.357143E-2],"categories":[],"categories_nodes":[],"categories_segments":[],"categories_sizes":[],"default_left":[0,0,0,0,0,0,0,0,0,0,0,0,0,0,0,0,0,0,0,0,0,0,0,0,0,0,0,0,0],"id":11,"left_children":[1,3,5,7,9,11,13,-1,15,17,19,21,23,25,27,-1,-1,-1,-1,-1,-1,-1,-1,-1,-1,-1,-1,-1,-1],"loss_changes":[5.303554E1,1.3327469E1,8.182217E0,2.2925606E0,5.6917686E0,2.7255898E0,2.838976E0,0E0,1.3619499E0,1.6842284E0,4.142272E0,2.3414578E0,1.6114125E0,4.84499E0,3.959217E-1,0E0,0E0,0E0,0E0,0E0,0E0,0E0,0E0,0E0,0E0,0E0,0E0,0E0,0E0],"parents":[2147483647,0,0,1,1,2,2,3,3,4,4,5,5,6,6,8,8,9,9,10,10,11,11,12,12,13,13,14,14],"right_children":[2,4,6,8,10,12,14,-1,16,18,20,22,24,26,28,-1,-1,-1,-1,-1,-1,-1,-1,-1,-1,-1,-1,-1,-1],"split_conditions":[1.6895345E-4,-8.892133E-5,3.485598E-4,-6.84E0,9.5664287E-1,-9E-2,6.515496E-4,4.9325228E-2,-3.8372093E-1,3.33463E3,3.30009E3,3.1269243E-4,1.7617267E-4,-9.4E-1,1.25E0,-1.617415E-2,-4.590648E-2,-5.86858E-2,-1.776069E-2,-3.5924353E-2,4.259874E-3,-7.6709925E-3,4.5004863E-2,8.728622E-2,2.7154252E-2,-2.3684595E-2,5.625492E-2,9.547713E-2,4.357143E-2],"split_indices":[5,5,5,8,6,8,5,0,4,0,0,5,5,7,7,0,0,0,0,0,0,0,0,0,0,0,0,0,0],"split_type":[0,0,0,0,0,0,0,0,0,0,0,0,0,0,0,0,0,0,0,0,0,0,0,0,0,0,0,0,0],"sum_hessian":[6.6961505E2,4.6731625E2,2.0229883E2,2.2117603E2,2.4614023E2,1.0982547E2,9.247335E1,1.9058384E0,2.1927019E2,4.276231E1,2.0337791E2,5.4994198E1,5.483127E1,6.851282E1,2.3960533E1,1.8206652E1,2.0106354E2,2.383553E1,1.892678E1,2.9051102E1,1.7432681E2,4.5692425E1,9.301772E0,4.2408257E0,5.0590443E1,8.088326E0,6.042449E1,1.9615004E1,4.3455296E0],"tree_param":{"num_deleted":"0","num_feature":"9","num_nodes":"29","size_leaf_vector":"1"}},{"base_weights":[-6.943991E-2,3.2028517E-1,-2.708596E-1,5.654565E-1,2.1288763E-1,-1.6809075E-1,-4.000728E-1,-3.6334035E-1,6.256871E-1,-1.1688684E-1,2.788636E-1,-4.082731E-1,-1.1468789E-1,-4.4974646E-1,-3.5062082E-2,-5.0785728E-2,1.393958E-3,4.95372E-2,8.6518E-2,-4.664828E-2,1.1383082E-2,1.9416988E-2,4.348151E-2,-2.1840708E-2,-5.7234254E-2,8.877657E-2,-1.3482116E-2,-4.025195E-2,-5.9333302E-2,2.0048173E-2,-5.8534443E-2],"categories":[],"categories_nodes":[],"categories_segments":[],"categories_sizes":[],"default_left":[0,0,0,0,0,0,0,0,0,0,0,0,0,0,0,0,0,0,0,0,0,0,0,0,0,0,0,0,0,0,0],"id":12,"left_children":[1,3,5,7,9,11,13,15,17,19,21,23,25,27,29,-1,-1,-1,-1,-1,-1,-1,-1,-1,-1,-1,-1,-1,-1,-1,-1],"loss_changes":[5.218814E1,5.846401E0,5.7505608E0,4.05513E0,3.495994E0,3.1053305E0,3.4901772E0,2.687691E-1,1.5883274E0,2.2504156E0,1.6714802E0,1.2553649E0,4.2055273E0,9.1475296E-1,3.260123E0,0E0,0E0,0E0,0E0,0E0,0E0,0E0,0E0,0E0,0E0,0E0,0E0,0E0,0E0,0E0,0E0],"parents":[2147483647,0,0,1,1,2,2,3,3,4,4,5,5,6,6,7,7,8,8,9,9,10,10,11,11,12,12,13,13,14,14],"right_children":[2,4,6,8,10,12,14,16,18,20,22,24,26,28,30,-1,-1,-1,-1,-1,-1,-1,-1,-1,-1,-1,-1,-1,-1,-1,-1],"split_conditions":[-1.21735844E-4,-4.554094E-4,1.3559431E-4,-3.42E0,1.0269285E0,9.6442854E-1,2.5049286E0,-3.292683E-1,2.3652143E0,3.32935E3,3.1E-1,2.7091494E-6,9.7657144E-1,1.8115942E-1,3.33653E3,-5.0785728E-2,1.393958E-3,4.95372E-2,8.6518E-2,-4.664828E-2,1.1383082E-2,1.9416988E-2,4.348151E-2,-2.1840708E-2,-5.7234254E-2,8.877657E-2,-1.3482116E-2,-4.025195E-2,-5.9333302E-2,2.0048173E-2,-5.8534443E-2],"split_indices":[5,5,5,8,6,6,6,4,6,1,7,5,6,4,0,0,0,0,0,0,0,0,0,0,0,0,0,0,0,0,0],"split_type":[0,0,0,0,0,0,0,0,0,0,0,0,0,0,0,0,0,0,0,0,0,0,0,0,0,0,0,0,0,0,0],"sum_hessian":[6.6272626E2,2.2560844E2,4.3711783E2,6.742438E1,1.5818407E2,2.447547E2,1.9236311E2,3.799592E0,6.3624783E1,2.6242392E1,1.3194168E2,4.331189E1,2.0144281E2,1.6911626E2,2.3246866E1,2.497011E0,1.3025811E0,4.319146E1,2.0433323E1,1.0027023E1,1.6215368E1,8.696048E1,4.4981197E1,2.115819E1,2.21537E1,3.117653E0,1.9832515E2,1.3012143E2,3.8994823E1,1.672398E1,6.5228868E0],"tree_param":{"num_deleted":"0","num_feature":"9","num_nodes":"31","size_leaf_vector":"1"}},{"base_weights":[1.216299E-1,4.9486345E-1,6.1190218E-2,5.622958E-1,1.0538624E-1,1.0170865E-1,-2.5926507E-1,5.829276E-1,-4.120195E-2,-3.318968E-1,3.886858E-1,-2.736005E-1,1.4662856E-1,1.4007042E-1,-3.325686E-1,9.1002363E-4,6.158477E-2,-5.841695E-2,3.5524674E-2,-4.629919E-2,5.8349878E-2,3.3658014E-3,-3.7601124E-2,1.9492393E-2,-1.5232341E-3,3.8494486E-2,-5.087593E-2,-3.9201703E-2,2.7469575E-2],"categories":[],"categories_nodes":[],"categories_segments":[],"categories_sizes":[],"default_left":[0,0,0,0,0,0,0,0,0,0,0,0,0,0,0,0,0,0,0,0,0,0,0,0,0,0,0,0,0],"id":13,"left_children":[1,3,5,7,9,11,13,15,-1,17,19,21,23,25,27,-1,-1,-1,-1,-1,-1,-1,-1,-1,-1,-1,-1,-1,-1],"loss_changes":[1.5686987E1,2.4872932E0,7.827148E0,1.8970051E0,2.0542142E0,9.043843E0,2.0288801E0,1.5269127E0,0E0,1.3601594E0,1.9113146E0,1.8200083E0,3.7366486E0,1.9763284E0,2.1839175E0,0E0,0E0,0E0,0E0,0E0,0E0,0E0,0E0,0E0,0E0,0E0,0E0,0E0,0E0],"parents":[2147483647,0,0,1,1,2,2,3,3,4,4,5,5,6,6,7,7,9,9,10,10,11,11,12,12,13,13,14,14],"right_children":[2,4,6,8,10,12,14,16,-1,18,20,22,24,26,28,-1,-1,-1,-1,-1,-1,-1,-1,-1,-1,-1,-1,-1,-1],"split_conditions":[9.5664287E-1,1.7983538E-4,3.9360538E-4,3.35202E3,-1.9714285E-1,-4.554094E-4,-3.071749E-1,3.30802E3,-4.120195E-2,1.36E0,6.890714E-1,-2.5420874E-1,1.9910715E0,2.5529287E0,3.42E0,9.1002363E-4,6.158477E-2,-5.841695E-2,3.5524674E-2,-4.629919E-2,5.8349878E-2,3.3658014E-3,-3.7601124E-2,1.9492393E-2,-1.5232341E-3,3.8494486E-2,-5.087593E-2,-3.9201703E-2,2.7469575E-2],"split_indices":[6,5,5,0,4,5,4,0,0,3,6,4,6,6,8,0,0,0,0,0,0,0,0,0,0,0,0,0,0],"split_type":[0,0,0,0,0,0,0,0,0,0,0,0,0,0,0,0,0,0,0,0,0,0,0,0,0,0,0,0,0],"sum_hessian":[6.957455E2,9.596215E1,5.997833E2,8.142148E1,1.4540669E1,5.330651E2,6.6718254E1,8.012645E1,1.2950294E0,5.6492734E0,8.8913965E0,5.6437214E1,4.7662787E2,1.0206344E1,5.6511906E1,4.416648E0,7.57098E1,4.2418213E0,1.4074521E0,1.3989426E0,7.492454E0,1.4276224E1,4.2160988E1,3.6693817E2,1.0968971E2,7.705082E0,2.5012615E0,5.1795788E1,4.7161202E0],"tree_param":{"num_deleted":"0","num_feature":"9","num_nodes":"29","size_leaf_vector":"1"}},{"base_weights":[-5.814087E-2,-3.1305313E-1,2.1732107E-1,-4.3676177E-1,-1.8208042E-1,6.1458062E-2,4.976097E-1,4.6308424E-2,-4.4934568E-1,-3.3269465E-1,6.0980916E-3,-3.7039417E-1,1.2585716E-1,4.039926E-1,8.11201E-1,6.359088E-3,-4.7397662E-2,2.5299832E-4,-4.040033E-2,3.4711067E-2,-1.2063789E-2,-5.801062E-2,5.019448E-3,9.009617E-2,4.090191E-3,5.526005E-2,9.765998E-3,8.851623E-2,4.2103253E-2],"categories":[],"categories_nodes":[],"categories_segments":[],"categories_sizes":[],"default_left":[0,0,0,0,0,0,0,0,0,0,0,0,0,0,0,0,0,0,0,0,0,0,0,0,0,0,0,0,0],"id":14,"left_children":[1,3,5,7,9,11,13,-1,15,17,19,21,23,25,27,-1,-1,-1,-1,-1,-1,-1,-1,-1,-1,-1,-1,-1,-1],"loss_changes":[4.6754154E1,5.522053E0,1.3955427E1,2.2132378E0,4.810215E0,5.8000865E0,3.0268364E0,0E0,2.2429123E0,2.2539215E0,3.3437881E0,2.419445E0,1.1867225E1,4.0425997E0,3.5676003E-1,0E0,0E0,0E0,0E0,0E0,0E0,0E0,0E0,0E0,0E0,0E0,0E0,0E0,0E0],"parents":[2147483647,0,0,1,1,2,2,3,3,4,4,5,5,6,6,8,8,9,9,10,10,11,11,12,12,13,13,14,14],"right_children":[2,4,6,8,10,12,14,-1,16,18,20,22,24,26,28,-1,-1,-1,-1,-1,-1,-1,-1,-1,-1,-1,-1,-1,-1],"split_conditions":[3.760781E-5,-1.4402893E-4,3.1269243E-4,-6.84E0,1.4254286E0,3.29885E3,6.515496E-4,4.6308424E-2,4.3E-1,3.30891E3,-1.02E0,5.8E-1,3.30412E3,1.53E0,2.7419356E-1,6.359088E-3,-4.7397662E-2,2.5299832E-4,-4.040033E-2,3.4711067E-2,-1.2063789E-2,-5.801062E-2,5.019448E-3,9.009617E-2,4.090191E-3,5.526005E-2,9.765998E-3,8.851623E-2,4.2103253E-2],"split_indices":[5,5,5,8,6,2,5,0,3,0,8,8,2,3,4,0,0,0,0,0,0,0,0,0,0,0,0,0,0],"split_type":[0,0,0,0,0,0,0,0,0,0,0,0,0,0,0,0,0,0,0,0,0,0,0,0,0,0,0,0,0],"sum_hessian":[6.6386804E2,3.4472415E2,3.1914392E2,1.7607755E2,1.6864659E2,2.0587831E2,1.1326561E2,1.934664E0,1.7414288E2,9.324623E1,7.540036E1,2.6100445E1,1.7977786E2,8.8988075E1,2.427753E1,7.906619E0,1.6623627E2,1.652519E1,7.672105E1,1.995851E1,5.544185E1,1.716329E1,8.937154E0,1.6809374E1,1.6296849E2,5.937849E1,2.9609587E1,1.9342289E1,4.935241E0],"tree_param":{"num_deleted":"0","num_feature":"9","num_nodes":"29","size_leaf_vector":"1"}},{"base_weights":[-6.520204E-2,2.9512495E-1,-2.5590962E-1,5.1791483E-1,1.9751804E-1,-1.568768E-1,-3.8240412E-1,-3.562741E-1,5.7378435E-1,-1.0693099E-1,2.5728723E-1,1.9383453E-1,-1.904476E-1,-4.3916073E-1,-7.245519E-2,1.4016739E-3,-4.993917E-2,4.4891622E-2,8.063902E-2,-6.0819637E-2,4.950671E-3,2.880351E-2,-1.0361782E-2,-3.8559627E-2,6.3487425E-2,-5.7969656E-2,-1.3876939E-2,-6.1975997E-2,-3.9329868E-2,1.1867638E-2,-5.8470465E-2],"categories":[],"categories_nodes":[],"categories_segments":[],"categories_sizes":[],"default_left":[0,0,0,0,0,0,0,0,0,0,0,0,0,0,0,0,0,0,0,0,0,0,0,0,0,0,0,0,0,0,0],"id":15,"left_children":[1,3,5,7,9,11,13,15,17,19,21,23,25,27,29,-1,-1,-1,-1,-1,-1,-1,-1,-1,-1,-1,-1,-1,-1,-1,-1],"loss_changes":[4.524691E1,4.855053E0,5.3314896E0,3.5662384E0,2.941441E0,2.8989906E0,3.2805786E0,2.5882047E-1,1.5282726E0,2.1461902E0,1.5185184E0,5.798462E0,4.3924713E0,1.0728054E0,3.0399523E0,0E0,0E0,0E0,0E0,0E0,0E0,0E0,0E0,0E0,0E0,0E0,0E0,0E0,0E0,0E0,0E0],"parents":[2147483647,0,0,1,1,2,2,3,3,4,4,5,5,6,6,7,7,8,8,9,9,10,10,11,11,12,12,13,13,14,14],"right_children":[2,4,6,8,10,12,14,16,18,20,22,24,26,28,30,-1,-1,-1,-1,-1,-1,-1,-1,-1,-1,-1,-1,-1,-1,-1,-1],"split_conditions":[-1.21735844E-4,-4.554094E-4,1.3559431E-4,-3.42E0,1.0269285E0,3.29556E3,2.4097142E0,3.3032E3,2.3652143E0,6.1E-1,2.93E0,3.29005E3,3.30436E3,1.8588798E-4,3.33653E3,1.4016739E-3,-4.993917E-2,4.4891622E-2,8.063902E-2,-6.0819637E-2,4.950671E-3,2.880351E-2,-1.0361782E-2,-3.8559627E-2,6.3487425E-2,-5.7969656E-2,-1.3876939E-2,-6.1975997E-2,-3.9329868E-2,1.1867638E-2,-5.8470465E-2],"split_indices":[5,5,5,8,6,0,6,0,6,3,8,1,0,5,0,0,0,0,0,0,0,0,0,0,0,0,0,0,0,0,0],"split_type":[0,0,0,0,0,0,0,0,0,0,0,0,0,0,0,0,0,0,0,0,0,0,0,0,0,0,0,0,0,0,0],"sum_hessian":[6.563531E2,2.2696776E2,4.293853E2,6.783249E1,1.5913527E2,2.4209154E2,1.8729376E2,3.75177E0,6.408072E1,2.5985035E1,1.3315022E2,2.0732004E1,2.2135953E2,1.5795314E2,2.9340631E1,1.2973008E0,2.4544692E0,4.360337E1,2.047735E1,5.493787E0,2.049125E1,1.22882935E2,1.0267296E1,9.014548E0,1.1717457E1,2.4746595E1,1.9661295E2,2.9453854E1,1.2849928E2,2.192737E1,7.413262E0],"tree_param":{"num_deleted":"0","num_feature":"9","num_nodes":"31","size_leaf_vector":"1"}},{"base_weights":[1.1273223E-1,4.605593E-1,5.7927854E-2,5.239027E-1,7.896622E-2,8.508585E-2,-3.6633593E-1,5.439843E-1,-4.0762965E-2,-5.0517708E-2,2.3903948E-1,-2.5596216E-1,1.22278765E-1,-3.4306195E-2,-4.9920958E-1,3.2831338E-4,5.7561547E-2,4.769639E-2,-2.007255E-2,3.8712576E-3,-3.565044E-2,1.3897471E-2,-2.3502508E-2,2.2805022E-2,-5.1461708E-2,-5.606559E-2,4.9423757E-3],"categories":[],"categories_nodes":[],"categories_segments":[],"categories_sizes":[],"default_left":[0,0,0,0,0,0,0,0,0,0,0,0,0,0,0,0,0,0,0,0,0,0,0,0,0,0,0],"id":16,"left_children":[1,3,5,7,9,11,13,15,-1,-1,17,19,21,23,25,-1,-1,-1,-1,-1,-1,-1,-1,-1,-1,-1,-1],"loss_changes":[1.3273085E1,2.250637E0,6.989066E0,1.7397156E0,1.4931388E0,7.2406163E0,1.5939741E0,1.3639965E0,0E0,0E0,1.3721216E0,1.6791546E0,3.093832E0,1.5678859E0,9.044461E-1,0E0,0E0,0E0,0E0,0E0,0E0,0E0,0E0,0E0,0E0,0E0,0E0],"parents":[2147483647,0,0,1,1,2,2,3,3,4,4,5,5,6,6,7,7,10,10,11,11,12,12,13,13,14,14],"right_children":[2,4,6,8,10,12,14,16,-1,-1,18,20,22,24,26,-1,-1,-1,-1,-1,-1,-1,-1,-1,-1,-1,-1],"split_conditions":[9.505E-1,1.7983538E-4,5.1113724E-4,3.35202E3,-3.275862E-1,-4.554094E-4,-2.1367522E-1,3.30802E3,-4.0762965E-2,-5.0517708E-2,3.33977E3,-2.5420874E-1,2.809E0,7.4174214E-4,3.42E0,3.2831338E-4,5.7561547E-2,4.769639E-2,-2.007255E-2,3.8712576E-3,-3.565044E-2,1.3897471E-2,-2.3502508E-2,2.2805022E-2,-5.1461708E-2,-5.606559E-2,4.9423757E-3],"split_indices":[6,5,5,0,4,5,4,0,0,0,1,4,6,5,8,0,0,0,0,0,0,0,0,0,0,0,0],"split_type":[0,0,0,0,0,0,0,0,0,0,0,0,0,0,0,0,0,0,0,0,0,0,0,0,0,0,0],"sum_hessian":[6.9669446E2,9.382316E1,6.028713E2,8.014618E1,1.3676979E1,5.6735333E2,3.551799E1,7.886214E1,1.2840443E0,2.478062E0,1.1198916E1,5.5210197E1,5.121431E2,1.0510967E1,2.5007023E1,4.41949E0,7.444264E1,7.21229E0,3.9866266E0,1.4201782E1,4.1008415E1,4.8986398E2,2.2279116E1,7.1375065E0,3.3734608E0,2.2468645E1,2.538377E0],"tree_param":{"num_deleted":"0","num_feature":"9","num_nodes":"27","size_leaf_vector":"1"}},{"base_weights":[-5.4315843E-2,-2.96494E-1,2.0088299E-1,-4.1726518E-1,-1.7125936E-1,5.71513E-2,4.5752802E-1,7.2914235E-2,-4.4114742E-1,-3.1610227E-1,6.4553306E-3,-3.5982403E-1,1.1840601E-1,8.913917E-2,5.238662E-1,-2.6979452E-2,7.130082E-2,4.3820675E-2,-4.544806E-2,4.332257E-4,-3.857184E-2,3.2698262E-2,-1.1461604E-2,-5.662408E-2,4.5260317E-3,8.372648E-2,3.7848426E-3,-2.1476327E-2,5.931565E-2,-6.981093E-3,5.5622347E-2],"categories":[],"categories_nodes":[],"categories_segments":[],"categories_sizes":[],"default_left":[0,0,0,0,0,0,0,0,0,0,0,0,0,0,0,0,0,0,0,0,0,0,0,0,0,0,0,0,0,0,0],"id":17,"left_children":[1,3,5,7,9,11,13,15,17,19,21,23,25,27,29,-1,-1,-1,-1,-1,-1,-1,-1,-1,-1,-1,-1,-1,-1,-1,-1],"loss_changes":[4.078556E1,5.0483875E0,1.1831508E1,2.041357E0,4.323377E0,5.3347206E0,2.76993E0,2.129737E0,2.1196117E0,2.0654182E0,3.0009663E0,2.2654078E0,1.04735985E1,3.0058959E0,1.9110622E0,0E0,0E0,0E0,0E0,0E0,0E0,0E0,0E0,0E0,0E0,0E0,0E0,0E0,0E0,0E0,0E0],"parents":[2147483647,0,0,1,1,2,2,3,3,4,4,5,5,6,6,7,7,8,8,9,9,10,10,11,11,12,12,13,13,14,14],"right_children":[2,4,6,8,10,12,14,16,18,20,22,24,26,28,30,-1,-1,-1,-1,-1,-1,-1,-1,-1,-1,-1,-1,-1,-1,-1,-1],"split_conditions":[3.760781E-5,-1.4402893E-4,3.1269243E-4,4.3E-1,1.4254286E0,3.29885E3,-2.9347825E-1,3.33919E3,-6.84E0,3.30891E3,-1.02E0,5.8E-1,3.30496E3,3.33725E3,5.3E-1,-2.6979452E-2,7.130082E-2,4.3820675E-2,-4.544806E-2,4.332257E-4,-3.857184E-2,3.2698262E-2,-1.1461604E-2,-5.662408E-2,4.5260317E-3,8.372648E-2,3.7848426E-3,-2.1476327E-2,5.931565E-2,-6.981093E-3,5.5622347E-2],"split_indices":[5,5,5,3,6,2,4,0,8,0,8,8,0,0,3,0,0,0,0,0,0,0,0,0,0,0,0,0,0,0,0],"split_type":[0,0,0,0,0,0,0,0,0,0,0,0,0,0,0,0,0,0,0,0,0,0,0,0,0,0,0,0,0,0,0],"sum_hessian":[6.579585E2,3.3750845E2,3.2045E2,1.7062898E2,1.6687946E2,2.0619505E2,1.1425497E2,7.831692E0,1.6279729E2,9.151403E1,7.536543E1,2.578644E1,1.8040862E2,1.7792637E1,9.6462326E1,5.4775167E0,2.3541756E0,1.9555955E0,1.608417E2,1.6500769E1,7.501326E1,2.0196362E1,5.5169075E1,1.6818493E1,8.967946E0,1.7233294E1,1.6317532E2,1.1457885E1,6.3347526E0,4.925938E0,9.153639E1],"tree_param":{"num_deleted":"0","num_feature":"9","num_nodes":"31","size_leaf_vector":"1"}},{"base_weights":[-6.1431445E-2,2.7198604E-1,-2.417428E-1,4.7583103E-1,1.8300325E-1,-1.5063436E-1,-3.7123257E-1,-3.4933338E-1,5.2801937E-1,-9.808699E-2,2.3729268E-1,-4.2821905E-1,-1.0940144E-1,-4.173402E-1,-6.789478E-2,-4.9333908E-2,1.8773543E-3,4.078628E-2,7.552976E-2,-4.4963766E-2,1.3036698E-2,1.6744606E-2,4.0687706E-2,-5.515289E-2,-5.6428596E-4,4.590359E-2,-1.2397288E-2,-3.6318373E-2,-5.853049E-2,2.0684497E-2,-4.5089524E-2],"categories":[],"categories_nodes":[],"categories_segments":[],"categories_sizes":[],"default_left":[0,0,0,0,0,0,0,0,0,0,0,0,0,0,0,0,0,0,0,0,0,0,0,0,0,0,0,0,0,0,0],"id":18,"left_children":[1,3,5,7,9,11,13,15,17,19,21,23,25,27,29,-1,-1,-1,-1,-1,-1,-1,-1,-1,-1,-1,-1,-1,-1,-1,-1],"loss_changes":[3.918869E1,4.064457E0,4.933071E0,3.1526375E0,2.4794474E0,2.8135457E0,2.4048386E0,2.584995E-1,1.4731197E0,2.2079296E0,1.5331903E0,1.6631956E0,1.8703232E0,1.1593513E0,2.6343293E0,0E0,0E0,0E0,0E0,0E0,0E0,0E0,0E0,0E0,0E0,0E0,0E0,0E0,0E0,0E0,0E0],"parents":[2147483647,0,0,1,1,2,2,3,3,4,4,5,5,6,6,7,7,8,8,9,9,10,10,11,11,12,12,13,13,14,14],"right_children":[2,4,6,8,10,12,14,16,18,20,22,24,26,28,30,-1,-1,-1,-1,-1,-1,-1,-1,-1,-1,-1,-1,-1,-1,-1,-1],"split_conditions":[-1.21735844E-4,-4.554094E-4,1.4919954E-4,-3.42E0,1.0269285E0,9.039286E-1,2.4664285E0,-3.292683E-1,2.3652143E0,3.32935E3,4.5E-1,3.34228E3,-2.41E0,1.8115942E-1,2.1E-1,-4.9333908E-2,1.8773543E-3,4.078628E-2,7.552976E-2,-4.4963766E-2,1.3036698E-2,1.6744606E-2,4.0687706E-2,-5.515289E-2,-5.6428596E-4,4.590359E-2,-1.2397288E-2,-3.6318373E-2,-5.853049E-2,2.0684497E-2,-4.5089524E-2],"split_indices":[5,5,5,8,6,6,6,4,6,1,7,0,7,4,8,0,0,0,0,0,0,0,0,0,0,0,0,0,0,0,0],"split_type":[0,0,0,0,0,0,0,0,0,0,0,0,0,0,0,0,0,0,0,0,0,0,0,0,0,0,0,0,0,0,0],"sum_hessian":[6.497587E2,2.2787743E2,4.2188132E2,6.792497E1,1.5995245E2,2.4891151E2,1.7296979E2,3.701758E0,6.422321E1,2.5761639E1,1.3419081E2,3.0978092E1,2.1793343E2,1.4982103E2,2.3148762E1,2.416286E0,1.2854719E0,4.3840397E1,2.0382818E1,9.765723E0,1.5995915E1,9.645241E1,3.7738407E1,2.3744246E1,7.233847E0,4.6845617E0,2.1324886E2,1.1568368E2,3.4137356E1,1.3747285E1,9.401478E0],"tree_param":{"num_deleted":"0","num_feature":"9","num_nodes":"31","size_leaf_vector":"1"}},{"base_weights":[1.0475601E-1,4.2716992E-1,5.3794015E-2,4.863185E-1,7.011329E-2,7.896009E-2,-3.5041356E-1,5.054735E-1,-4.033069E-2,-4.9799528E-2,2.2404428E-1,-2.3913024E-1,1.12761244E-1,-3.3026874E-2,-4.813719E-1,6.1157968E-2,3.245154E-2,-4.811378E-2,3.5988107E-2,-3.7697837E-2,-1.4984334E-3,2.7650347E-2,7.84032E-3,2.1514706E-2,-5.029117E-2,-5.438695E-2,5.68328E-3],"categories":[],"categories_nodes":[],"categories_segments":[],"categories_sizes":[],"default_left":[0,0,0,0,0,0,0,0,0,0,0,0,0,0,0,0,0,0,0,0,0,0,0,0,0,0,0],"id":19,"left_children":[1,3,5,7,9,11,13,15,-1,-1,17,19,21,23,25,-1,-1,-1,-1,-1,-1,-1,-1,-1,-1,-1,-1],"loss_changes":[1.1447189E1,1.975153E0,6.171233E0,1.5918102E0,1.3961061E0,6.1487E0,1.4630494E0,1.340971E0,0E0,0E0,1.3462937E0,1.6940975E0,2.877645E0,1.4453944E0,8.756957E-1,0E0,0E0,0E0,0E0,0E0,0E0,0E0,0E0,0E0,0E0,0E0,0E0],"parents":[2147483647,0,0,1,1,2,2,3,3,4,4,5,5,6,6,7,7,10,10,11,11,12,12,13,13,14,14],"right_children":[2,4,6,8,10,12,14,16,-1,-1,18,20,22,24,26,-1,-1,-1,-1,-1,-1,-1,-1,-1,-1,-1,-1],"split_conditions":[9.505E-1,1.7983538E-4,5.1113724E-4,3.35202E3,-3.275862E-1,-4.554094E-4,-2.1367522E-1,8.66E-1,-4.033069E-2,-4.9799528E-2,1.8588798E-4,6.1E-1,3.3007E3,7.4174214E-4,3.42E0,6.1157968E-2,3.245154E-2,-4.811378E-2,3.5988107E-2,-3.7697837E-2,-1.4984334E-3,2.7650347E-2,7.84032E-3,2.1514706E-2,-5.029117E-2,-5.438695E-2,5.68328E-3],"split_indices":[6,5,5,0,4,5,4,6,0,0,5,8,0,5,8,0,0,0,0,0,0,0,0,0,0,0,0],"split_type":[0,0,0,0,0,0,0,0,0,0,0,0,0,0,0,0,0,0,0,0,0,0,0,0,0,0,0],"sum_hessian":[6.970871E2,9.413768E1,6.029494E2,8.044882E1,1.3688854E1,5.683674E2,3.458205E1,7.9175865E1,1.2729621E0,2.441798E0,1.1247056E1,5.401137E1,5.1435596E2,1.0466924E1,2.4115126E1,4.8410385E1,3.0765478E1,1.4059887E0,9.841067E0,3.3021526E1,2.0989845E1,8.798636E1,4.263696E2,7.2041273E0,3.2627969E0,2.1596735E1,2.5183897E0],"tree_param":{"num_deleted":"0","num_feature":"9","num_nodes":"27","size_leaf_vector":"1"}},{"base_weights":[-5.078359E-2,-2.8127363E-1,1.8649915E-1,-3.989705E-1,-1.6178201E-1,7.039512E-2,4.606061E-1,8.262533E-2,-4.230254E-1,-3.0103162E-1,6.0541774E-3,4.9393628E-2,8.3036137E-1,9.136231E-2,5.249429E-1,-4.982647E-2,4.2597327E-2,4.127353E-2,-4.3618627E-2,-5.418045E-3,-3.9240524E-2,3.0682981E-2,-1.0932329E-2,8.363646E-3,-6.152336E-2,-4.03689E-3,1.0976143E-1,5.195105E-2,-2.2756642E-2,6.3220344E-2,3.2759946E-2],"categories":[],"categories_nodes":[],"categories_segments":[],"categories_sizes":[],"default_left":[0,0,0,0,0,0,0,0,0,0,0,0,0,0,0,0,0,0,0,0,0,0,0,0,0,0,0,0,0,0,0],"id":20,"left_children":[1,3,5,7,9,11,13,15,17,19,21,23,25,27,29,-1,-1,-1,-1,-1,-1,-1,-1,-1,-1,-1,-1,-1,-1,-1,-1],"loss_changes":[3.575521E1,4.598177E0,1.02236E1,1.9619884E0,3.8860612E0,3.5908978E0,2.2256413E0,1.957388E0,1.9244423E0,2.0280237E0,2.6828778E0,5.115299E0,1.4536057E0,2.2227283E0,1.5136623E0,0E0,0E0,0E0,0E0,0E0,0E0,0E0,0E0,0E0,0E0,0E0,0E0,0E0,0E0,0E0,0E0],"parents":[2147483647,0,0,1,1,2,2,3,3,4,4,5,5,6,6,7,7,8,8,9,9,10,10,11,11,12,12,13,13,14,14],"right_children":[2,4,6,8,10,12,14,16,18,20,22,24,26,28,30,-1,-1,-1,-1,-1,-1,-1,-1,-1,-1,-1,-1,-1,-1,-1,-1],"split_conditions":[3.760781E-5,-1.4402893E-4,3.485598E-4,4.3E-1,1.4254286E0,3.3543E3,-2.9347825E-1,3.3E-1,-6.84E0,-2.3775215E-1,-1.02E0,3.35083E3,1E-1,-4.076923E-1,1.53E0,-4.982647E-2,4.2597327E-2,4.127353E-2,-4.3618627E-2,-5.418045E-3,-3.9240524E-2,3.0682981E-2,-1.0932329E-2,8.363646E-3,-6.152336E-2,-4.03689E-3,1.0976143E-1,5.195105E-2,-2.2756642E-2,6.3220344E-2,3.2759946E-2],"split_indices":[5,5,5,3,6,0,4,3,8,4,8,0,8,4,3,0,0,0,0,0,0,0,0,0,0,0,0,0,0,0,0],"split_type":[0,0,0,0,0,0,0,0,0,0,0,0,0,0,0,0,0,0,0,0,0,0,0,0,0,0,0,0,0,0,0],"sum_hessian":[6.518049E2,3.3054092E2,3.2126395E2,1.6534274E2,1.6519818E2,2.2655739E2,9.470655E1,7.7498794E0,1.5759286E2,8.985449E1,7.53437E1,2.2150124E2,5.0561414E0,1.4412115E1,8.029444E1,2.7114103E0,5.038469E0,1.9724784E0,1.5562038E2,2.4705114E1,6.5149376E1,2.0428808E1,5.4914886E1,2.1147958E2,1.0021662E1,1.3867979E0,3.6693435E0,5.884074E0,8.528041E0,5.0592632E1,2.9701807E1],"tree_param":{"num_deleted":"0","num_feature":"9","num_nodes":"31","size_leaf_vector":"1"}},{"base_weights":[-5.7784904E-2,2.513943E-1,-2.2826213E-1,3.9422008E-1,1.448689E-1,-1.355555E-1,-3.4789613E-1,2.1235898E-1,5.439094E-1,-5.9002955E-2,1.6925883E-1,-4.7217846E-1,-1.0353782E-1,-4.0350366E-1,-5.1400054E-2,5.545162E-2,8.975346E-3,5.8653213E-2,-5.593157E-2,6.0139294E-3,3.1023432E-2,-6.028573E-2,4.1458505E-4,-1.8212512E-2,6.6436833E-4,-5.0046712E-2,-3.2284025E-2,1.3358352E-2,-5.676631E-2],"categories":[],"categories_nodes":[],"categories_segments":[],"categories_sizes":[],"default_left":[0,0,0,0,0,0,0,0,0,0,0,0,0,0,0,0,0,0,0,0,0,0,0,0,0,0,0,0,0],"id":21,"left_children":[1,3,5,7,9,11,13,15,17,-1,19,21,23,25,27,-1,-1,-1,-1,-1,-1,-1,-1,-1,-1,-1,-1,-1,-1],"loss_changes":[3.400818E1,3.4332552E0,4.5635376E0,2.5366669E0,2.483495E0,2.4931588E0,2.9612179E0,1.8642685E0,2.8107882E0,0E0,1.9733064E0,1.260119E0,1.8771842E0,1.0284767E0,2.9130943E0,0E0,0E0,0E0,0E0,0E0,0E0,0E0,0E0,0E0,0E0,0E0,0E0,0E0,0E0],"parents":[2147483647,0,0,1,1,2,2,3,3,4,4,5,5,6,6,7,7,8,8,10,10,11,11,12,12,13,13,14,14],"right_children":[2,4,6,8,10,12,14,16,18,-1,20,22,24,26,28,-1,-1,-1,-1,-1,-1,-1,-1,-1,-1,-1,-1,-1,-1],"split_conditions":[-1.21735844E-4,-3.6013403E-4,1.3158009E-4,3.32242E3,4.5E-1,8.512143E-1,2.4097142E0,7.9E-1,4.155857E0,-5.9002955E-2,-2.2123894E-2,3.34228E3,1.36E0,-1.2E-1,3.33653E3,5.545162E-2,8.975346E-3,5.8653213E-2,-5.593157E-2,6.0139294E-3,3.1023432E-2,-6.028573E-2,4.1458505E-4,-1.8212512E-2,6.6436833E-4,-5.0046712E-2,-3.2284025E-2,1.3358352E-2,-5.676631E-2],"split_indices":[5,5,5,0,3,6,6,3,6,0,4,0,3,7,0,0,0,0,0,0,0,0,0,0,0,0,0,0,0],"split_type":[0,0,0,0,0,0,0,0,0,0,0,0,0,0,0,0,0,0,0,0,0,0,0,0,0,0,0,0,0],"sum_hessian":[6.431297E2,2.2840942E2,4.147203E2,9.642509E1,1.3198434E2,2.3485773E2,1.7986256E2,4.462626E1,5.1798832E1,3.494652E0,1.2848969E2,1.9204174E1,2.1565356E2,1.5115305E2,2.870951E1,1.0843199E1,3.378306E1,5.0322968E1,1.4758624E0,7.323221E1,5.5257477E1,1.4861343E1,4.3428307E0,1.2549261E2,9.016095E1,6.6277794E1,8.487526E1,2.1681871E1,7.02764E0],"tree_param":{"num_deleted":"0","num_feature":"9","num_nodes":"29","size_leaf_vector":"1"}},{"base_weights":[9.735565E-2,3.9535078E-1,5.021551E-2,5.1034945E-1,2.2005266E-1,7.349858E-2,-3.346033E-1,3.303488E-1,6.5597373E-1,-3.0184266E-1,3.309705E-1,-2.227153E-1,1.042108E-1,4.603343E-2,-3.787829E-1,4.5047026E-2,-1.7318085E-2,9.089893E-2,5.164645E-2,1.6100528E-2,-5.6747336E-2,5.9227407E-2,-2.9583552E-3,-3.596566E-2,-3.857968E-4,1.1960707E-2,-2.2957986E-2,3.456221E-2,-4.260498E-2],"categories":[],"categories_nodes":[],"categories_segments":[],"categories_sizes":[],"default_left":[0,0,0,0,0,0,0,0,0,0,0,0,0,0,0,0,0,0,0,0,0,0,0,0,0,0,0,0,0],"id":22,"left_children":[1,3,5,7,9,11,13,15,17,19,21,23,25,-1,27,-1,-1,-1,-1,-1,-1,-1,-1,-1,-1,-1,-1,-1,-1],"loss_changes":[9.785801E0,1.8067389E0,5.434844E0,1.2702389E0,2.3846507E0,5.210617E0,1.3905859E0,1.7342877E0,6.015854E-1,1.0062121E0,3.129203E0,1.6135943E0,2.6860485E0,0E0,1.2893629E0,0E0,0E0,0E0,0E0,0E0,0E0,0E0,0E0,0E0,0E0,0E0,0E0,0E0,0E0],"parents":[2147483647,0,0,1,1,2,2,3,3,4,4,5,5,6,6,7,7,8,8,9,9,10,10,11,11,12,12,14,14],"right_children":[2,4,6,8,10,12,14,16,18,20,22,24,26,-1,28,-1,-1,-1,-1,-1,-1,-1,-1,-1,-1,-1,-1,-1,-1],"split_conditions":[9.505E-1,3.33873E3,5.1113724E-4,3.31364E3,3.33939E3,-4.554094E-4,-4.5454547E-1,1.7983538E-4,-5.5E-1,3.33907E3,8.5E-1,6.1E-1,2.809E0,4.603343E-2,4.5E-1,4.5047026E-2,-1.7318085E-2,9.089893E-2,5.164645E-2,1.6100528E-2,-5.6747336E-2,5.9227407E-2,-2.9583552E-3,-3.596566E-2,-3.857968E-4,1.1960707E-2,-2.2957986E-2,3.456221E-2,-4.260498E-2],"split_indices":[6,2,5,0,2,5,4,5,7,2,3,8,6,0,3,0,0,0,0,0,0,0,0,0,0,0,0,0,0],"split_type":[0,0,0,0,0,0,0,0,0,0,0,0,0,0,0,0,0,0,0,0,0,0,0,0,0,0,0,0,0],"sum_hessian":[6.9703394E2,9.4195145E1,6.0283875E2,5.5726357E1,3.846879E1,5.6920844E2,3.3630363E1,2.6383377E1,2.934298E1,6.4410005E0,3.2027786E1,5.288552E1,5.163229E2,1.2746978E0,3.2355663E1,2.1386753E1,4.996624E0,8.468604E0,2.0874374E1,2.4922526E0,3.9487479E0,1.8197138E1,1.3830648E1,3.2134987E1,2.075053E1,4.941707E2,2.2152205E1,1.5952339E0,3.076043E1],"tree_param":{"num_deleted":"0","num_feature":"9","num_nodes":"29","size_leaf_vector":"1"}},{"base_weights":[-4.752715E-2,-2.6690558E-1,1.7335075E-1,-3.8178515E-1,-1.5273958E-1,4.8369206E-2,3.9547068E-1,8.8372305E-2,-4.0593556E-1,-2.8732237E-1,6.978053E-3,-3.4920746E-1,1.0575102E-1,3.1203052E-1,6.8327427E-1,-2.4864195E-2,6.8510115E-2,1.2370667E-2,-4.2871606E-2,-4.718011E-3,-3.774404E-2,2.9182404E-2,-1.0370592E-2,-5.525392E-2,4.050122E-3,7.696696E-2,2.9882444E-3,4.4349562E-2,4.259455E-3,7.549585E-2,2.8748019E-2],"categories":[],"categories_nodes":[],"categories_segments":[],"categories_sizes":[],"default_left":[0,0,0,0,0,0,0,0,0,0,0,0,0,0,0,0,0,0,0,0,0,0,0,0,0,0,0,0,0,0,0],"id":23,"left_children":[1,3,5,7,9,11,13,15,17,19,21,23,25,27,29,-1,-1,-1,-1,-1,-1,-1,-1,-1,-1,-1,-1,-1,-1,-1,-1],"loss_changes":[3.1383432E1,4.2022457E0,8.943832E0,1.866827E0,3.540109E0,4.77643E0,2.5752163E0,1.919885E0,1.9057465E0,1.9158783E0,2.4341753E0,2.1170735E0,9.160235E0,3.234827E0,4.9956703E-1,0E0,0E0,0E0,0E0,0E0,0E0,0E0,0E0,0E0,0E0,0E0,0E0,0E0,0E0,0E0,0E0],"parents":[2147483647,0,0,1,1,2,2,3,3,4,4,5,5,6,6,7,7,8,8,9,9,10,10,11,11,12,12,13,13,14,14],"right_children":[2,4,6,8,10,12,14,16,18,20,22,24,26,28,30,-1,-1,-1,-1,-1,-1,-1,-1,-1,-1,-1,-1,-1,-1,-1,-1],"split_conditions":[3.760781E-5,-1.4402893E-4,3.1269243E-4,4.3E-1,1.4254286E0,3.29885E3,6.515496E-4,3.33919E3,-4.2391303E-1,-2.3775215E-1,-1.02E0,5.8E-1,3.30412E3,1.53E0,1.25E0,-2.4864195E-2,6.8510115E-2,1.2370667E-2,-4.2871606E-2,-4.718011E-3,-3.774404E-2,2.9182404E-2,-1.0370592E-2,-5.525392E-2,4.050122E-3,7.696696E-2,2.9882444E-3,4.4349562E-2,4.259455E-3,7.549585E-2,2.8748019E-2],"split_indices":[5,5,5,3,6,2,5,0,4,4,8,8,2,3,7,0,0,0,0,0,0,0,0,0,0,0,0,0,0,0,0],"split_type":[0,0,0,0,0,0,0,0,0,0,0,0,0,0,0,0,0,0,0,0,0,0,0,0,0,0,0,0,0,0,0],"sum_hessian":[6.457159E2,3.2385306E2,3.2186285E2,1.6025362E2,1.6359943E2,2.067483E2,1.15114555E2,7.6995864E0,1.5255403E2,8.835227E1,7.5247154E1,2.5434776E1,1.8131354E2,9.085734E1,2.4257217E1,5.2933745E0,2.4062116E0,6.1082478E0,1.4644579E2,2.4524387E1,6.3827885E1,2.0598978E1,5.4648174E1,1.643956E1,8.995216E0,1.7656696E1,1.6365683E2,6.0628864E1,3.0228477E1,1.9769258E1,4.4879584E0],"tree_param":{"num_deleted":"0","num_feature":"9","num_nodes":"31","size_leaf_vector":"1"}},{"base_weights":[-5.4631088E-2,2.3179188E-1,-2.1565203E-1,-9.35618E-2,2.729578E-1,-1.3142389E-1,-3.3943087E-1,-4.3890497E-1,1.2694772E-1,-5.13588E-2,2.8519365E-1,-3.9246637E-1,-9.479474E-2,-3.8285705E-1,-3.4001004E-2,-6.1996985E-2,5.3798217E-2,-5.628402E-2,3.8731106E-2,3.9984338E-2,1.8309772E-2,-5.1998403E-2,1.6169038E-3,-2.4075354E-2,-3.7242882E-3,-3.2620493E-2,-5.6266755E-2,2.487922E-2,-6.101113E-2],"categories":[],"categories_nodes":[],"categories_segments":[],"categories_sizes":[],"default_left":[0,0,0,0,0,0,0,0,0,0,0,0,0,0,0,0,0,0,0,0,0,0,0,0,0,0,0,0,0],"id":24,"left_children":[1,3,5,7,9,11,13,15,17,-1,19,21,23,25,27,-1,-1,-1,-1,-1,-1,-1,-1,-1,-1,-1,-1,-1,-1],"loss_changes":[2.9463326E1,3.1059055E0,4.217041E0,2.0795364E0,2.1137638E0,2.3042436E0,2.174017E0,2.2050908E0,3.2702692E0,0E0,2.2903824E0,1.5619664E0,1.8059971E0,1.2860432E0,3.674638E0,0E0,0E0,0E0,0E0,0E0,0E0,0E0,0E0,0E0,0E0,0E0,0E0,0E0,0E0],"parents":[2147483647,0,0,1,1,2,2,3,3,4,4,5,5,6,6,7,7,8,8,10,10,11,11,12,12,13,13,14,14],"right_children":[2,4,6,8,10,12,14,16,18,-1,20,22,24,26,28,-1,-1,-1,-1,-1,-1,-1,-1,-1,-1,-1,-1,-1,-1],"split_conditions":[-1.21735844E-4,1.0269285E0,1.4919954E-4,3.32935E3,-4.74E0,9.039286E-1,2.5049286E0,-1.2904403E-4,6.1E-1,-5.13588E-2,-3.6013403E-4,3.34228E3,-4.1E-1,1.8115942E-1,6.1E-1,-6.1996985E-2,5.3798217E-2,-5.628402E-2,3.8731106E-2,3.9984338E-2,1.8309772E-2,-5.1998403E-2,1.6169038E-3,-2.4075354E-2,-3.7242882E-3,-3.2620493E-2,-5.6266755E-2,2.487922E-2,-6.101113E-2],"split_indices":[5,6,5,1,8,6,6,5,3,0,5,0,7,4,8,0,0,0,0,0,0,0,0,0,0,0,0,0,0],"split_type":[0,0,0,0,0,0,0,0,0,0,0,0,0,0,0,0,0,0,0,0,0,0,0,0,0,0,0,0,0],"sum_hessian":[6.367553E2,2.2898999E2,4.0776535E2,2.5576227E1,2.0341376E2,2.4387604E2,1.638893E2,9.58095E0,1.5995277E1,2.488276E0,2.0092549E2,2.8814087E1,2.1506195E2,1.4326613E2,2.0623163E1,8.391042E0,1.189908E0,4.064728E0,1.193055E1,9.327029E1,1.07655205E2,2.1753317E1,7.06077E0,5.991831E1,1.5514365E2,1.11082115E2,3.2184013E1,1.4214093E1,6.4090695E0],"tree_param":{"num_deleted":"0","num_feature":"9","num_nodes":"29","size_leaf_vector":"1"}},{"base_weights":[9.083966E-2,3.6880404E-1,4.6887208E-2,4.791322E-1,2.0125535E-1,6.993903E-2,-3.0646217E-1,3.0583635E-1,6.195041E-1,-2.9970413E-1,3.0772096E-1,9.71757E-2,-1.7605773E-1,4.331104E-2,-3.458341E-1,4.20279E-2,-1.7159326E-2,4.5817185E-2,8.305547E-2,1.556066E-2,-5.5979658E-2,5.5405356E-2,-3.2087737E-3,2.720417E-2,5.863359E-3,3.2250203E-2,-2.656038E-2,-1.520426E-2,-5.4485913E-2],"categories":[],"categories_nodes":[],"categories_segments":[],"categories_sizes":[],"default_left":[0,0,0,0,0,0,0,0,0,0,0,0,0,0,0,0,0,0,0,0,0,0,0,0,0,0,0,0,0],"id":25,"left_children":[1,3,5,7,9,11,13,15,17,19,21,23,25,-1,27,-1,-1,-1,-1,-1,-1,-1,-1,-1,-1,-1,-1,-1,-1],"loss_changes":[8.505497E0,1.6615438E0,4.937184E0,1.187809E0,2.1980534E0,3.8184826E0,1.2314179E0,1.564425E0,6.513357E-1,9.6662796E-1,2.7847738E0,3.431048E0,2.6264172E0,0E0,1.2988863E0,0E0,0E0,0E0,0E0,0E0,0E0,0E0,0E0,0E0,0E0,0E0,0E0,0E0,0E0],"parents":[2147483647,0,0,1,1,2,2,3,3,4,4,5,5,6,6,7,7,8,8,9,9,10,10,11,11,12,12,14,14],"right_children":[2,4,6,8,10,12,14,16,18,20,22,24,26,-1,28,-1,-1,-1,-1,-1,-1,-1,-1,-1,-1,-1,-1,-1,-1],"split_conditions":[9.505E-1,3.33873E3,2.809E0,3.31364E3,3.33972E3,3.9360538E-4,-3.68E0,1.7983538E-4,2.6266116E-5,5.9E-1,8.5E-1,3.30148E3,-3.071749E-1,4.331104E-2,-8.020003E-5,4.20279E-2,-1.7159326E-2,4.5817185E-2,8.305547E-2,1.556066E-2,-5.5979658E-2,5.5405356E-2,-3.2087737E-3,2.720417E-2,5.863359E-3,3.2250203E-2,-2.656038E-2,-1.520426E-2,-5.4485913E-2],"split_indices":[6,2,6,0,0,5,8,5,5,3,3,0,4,0,5,0,0,0,0,0,0,0,0,0,0,0,0,0,0],"split_type":[0,0,0,0,0,0,0,0,0,0,0,0,0,0,0,0,0,0,0,0,0,0,0,0,0,0,0,0,0],"sum_hessian":[6.9660486E2,9.410084E1,6.02504E2,5.5617752E1,3.848308E1,5.6635803E2,3.6146027E1,2.6312487E1,2.9305267E1,6.4269423E0,3.205614E1,5.1044653E2,5.5911476E1,1.3215336E0,3.4824493E1,2.1321342E1,4.9911437E0,1.84061E1,1.0899169E1,2.482635E0,3.9443076E0,1.8218662E1,1.3837477E1,9.109393E1,4.193526E2,8.117072E0,4.7794407E1,1.8537949E1,1.6286543E1],"tree_param":{"num_deleted":"0","num_feature":"9","num_nodes":"29","size_leaf_vector":"1"}},{"base_weights":[-4.4549666E-2,-2.5311807E-1,1.6128431E-1,-3.6547914E-1,-1.4361902E-1,4.498781E-2,3.6800095E-1,9.041099E-2,-3.8957405E-1,-2.7299237E-1,7.303239E-3,-3.3876184E-1,9.9554256E-2,2.8989223E-1,6.4059585E-1,-4.8495043E-2,4.184654E-2,3.3254653E-2,-4.0497553E-2,3.6494012E-3,-3.427243E-2,2.765709E-2,-9.861081E-3,-5.398922E-2,3.8428274E-3,7.226073E-2,2.7458211E-3,4.1404776E-2,3.5373536E-3,7.0986964E-2,2.6438428E-2],"categories":[],"categories_nodes":[],"categories_segments":[],"categories_sizes":[],"default_left":[0,0,0,0,0,0,0,0,0,0,0,0,0,0,0,0,0,0,0,0,0,0,0,0,0,0,0,0,0,0,0],"id":26,"left_children":[1,3,5,7,9,11,13,15,17,19,21,23,25,27,29,-1,-1,-1,-1,-1,-1,-1,-1,-1,-1,-1,-1,-1,-1,-1,-1],"loss_changes":[2.7532837E1,3.8657665E0,7.74648E0,1.7546768E0,3.1833684E0,4.3848953E0,2.2867756E0,1.8392963E0,1.7902889E0,1.9064016E0,2.19983E0,2.000473E0,8.186896E0,2.8952646E0,4.648037E-1,0E0,0E0,0E0,0E0,0E0,0E0,0E0,0E0,0E0,0E0,0E0,0E0,0E0,0E0,0E0,0E0],"parents":[2147483647,0,0,1,1,2,2,3,3,4,4,5,5,6,6,7,7,8,8,9,9,10,10,11,11,12,12,13,13,14,14],"right_children":[2,4,6,8,10,12,14,16,18,20,22,24,26,28,30,-1,-1,-1,-1,-1,-1,-1,-1,-1,-1,-1,-1,-1,-1,-1,-1],"split_conditions":[3.760781E-5,-1.4402893E-4,3.1269243E-4,4.3E-1,1.4254286E0,3.29885E3,6.515496E-4,3.3E-1,-4.5454547E-1,3.30891E3,-1.02E0,5.8E-1,3.30496E3,1.53E0,1.25E0,-4.8495043E-2,4.184654E-2,3.3254653E-2,-4.0497553E-2,3.6494012E-3,-3.427243E-2,2.765709E-2,-9.861081E-3,-5.398922E-2,3.8428274E-3,7.226073E-2,2.7458211E-3,4.1404776E-2,3.5373536E-3,7.0986964E-2,2.6438428E-2],"split_indices":[5,5,5,3,6,2,5,3,4,0,8,8,0,3,7,0,0,0,0,0,0,0,0,0,0,0,0,0,0,0,0],"split_type":[0,0,0,0,0,0,0,0,0,0,0,0,0,0,0,0,0,0,0,0,0,0,0,0,0,0,0,0,0,0,0],"sum_hessian":[6.3938464E2,3.1746872E2,3.2191592E2,1.5553288E2,1.6193585E2,2.067937E2,1.15122215E2,7.669472E0,1.4786342E2,8.6757164E1,7.517868E1,2.5095592E1,1.816981E2,9.1086075E1,2.4036146E1,2.6113203E0,5.0581517E0,2.657776E0,1.4520564E2,1.6040838E1,7.0716324E1,2.0768127E1,5.4410553E1,1.6086424E1,9.00917E0,1.7908682E1,1.6378943E2,6.080049E1,3.0285582E1,1.9549505E1,4.486641E0],"tree_param":{"num_deleted":"0","num_feature":"9","num_nodes":"31","size_leaf_vector":"1"}},{"base_weights":[-5.1397216E-2,2.157593E-1,-2.0411685E-1,-8.8720314E-2,2.5389186E-1,-1.1838982E-1,-3.184105E-1,-4.248171E-1,1.2091925E-1,-5.060962E-2,2.6561433E-1,-4.4301158E-1,-8.927092E-2,-3.7342128E-1,-3.697772E-2,-6.0730945E-2,5.2141935E-2,-5.4810096E-2,3.6395475E-2,4.1303907E-2,1.9216333E-2,-5.79061E-2,1.3414448E-3,-1.6695498E-2,1.9062283E-3,-5.5390444E-2,-3.24032E-2,1.4188985E-2,-5.5506673E-2],"categories":[],"categories_nodes":[],"categories_segments":[],"categories_sizes":[],"default_left":[0,0,0,0,0,0,0,0,0,0,0,0,0,0,0,0,0,0,0,0,0,0,0,0,0,0,0,0,0],"id":27,"left_children":[1,3,5,7,9,11,13,15,17,-1,19,21,23,25,27,-1,-1,-1,-1,-1,-1,-1,-1,-1,-1,-1,-1,-1,-1],"loss_changes":[2.5810888E1,2.6952019E0,3.9045162E0,1.9087727E0,1.9592628E0,2.1487012E0,2.6467495E0,2.1035771E0,2.9657817E0,0E0,2.1120586E0,1.1754136E0,1.8015691E0,1.1009293E0,2.7854967E0,0E0,0E0,0E0,0E0,0E0,0E0,0E0,0E0,0E0,0E0,0E0,0E0,0E0,0E0],"parents":[2147483647,0,0,1,1,2,2,3,3,4,4,5,5,6,6,7,7,8,8,10,10,11,11,12,12,13,13,14,14],"right_children":[2,4,6,8,10,12,14,16,18,-1,20,22,24,26,28,-1,-1,-1,-1,-1,-1,-1,-1,-1,-1,-1,-1,-1,-1],"split_conditions":[-1.21735844E-4,1.0269285E0,1.3158009E-4,3.32935E3,-4.74E0,8.512143E-1,2.4097142E0,-1.2904403E-4,6.1E-1,-5.060962E-2,-4.554094E-4,3.34228E3,1.36E0,1.8588798E-4,3.33653E3,-6.0730945E-2,5.2141935E-2,-5.4810096E-2,3.6395475E-2,4.1303907E-2,1.9216333E-2,-5.79061E-2,1.3414448E-3,-1.6695498E-2,1.9062283E-3,-5.5390444E-2,-3.24032E-2,1.4188985E-2,-5.5506673E-2],"split_indices":[5,6,5,1,8,6,6,5,3,0,5,0,3,5,0,0,0,0,0,0,0,0,0,0,0,0,0,0,0],"split_type":[0,0,0,0,0,0,0,0,0,0,0,0,0,0,0,0,0,0,0,0,0,0,0,0,0,0,0,0,0],"sum_hessian":[6.3053973E2,2.2919318E2,4.0134656E2,2.5361423E1,2.0383176E2,2.3049638E2,1.7085016E2,9.348068E0,1.6013355E1,2.4556372E0,2.0137613E2,1.7803743E1,2.1269264E2,1.4264159E2,2.820857E1,8.13695E0,1.2111185E0,3.932598E0,1.2080758E1,6.542907E1,1.3594705E2,1.3508505E1,4.2952385E0,1.23553345E2,8.91393E1,2.8452518E1,1.14189064E2,2.1508871E1,6.6996994E0],"tree_param":{"num_deleted":"0","num_feature":"9","num_nodes":"29","size_leaf_vector":"1"}},{"base_weights":[8.4878035E-2,3.385306E-1,4.3460473E-2,4.6019477E-1,1.6152504E-1,6.503618E-2,-2.920864E-1,2.8042483E-1,6.023604E-1,2.97277E-1,-2.1095031E-1,8.200341E-2,-2.7136075E-1,4.1782122E-2,-3.3107743E-1,3.526891E-2,-4.3028995E-2,4.4470247E-2,8.068774E-2,5.9189867E-2,5.249826E-3,6.274249E-2,-3.9659396E-2,-1.652705E-2,1.0395325E-2,7.736241E-3,-4.4381376E-2,-1.4148648E-2,-5.292588E-2],"categories":[],"categories_nodes":[],"categories_segments":[],"categories_sizes":[],"default_left":[0,0,0,0,0,0,0,0,0,0,0,0,0,0,0,0,0,0,0,0,0,0,0,0,0,0,0,0,0],"id":28,"left_children":[1,3,5,7,9,11,13,15,17,19,21,23,25,-1,27,-1,-1,-1,-1,-1,-1,-1,-1,-1,-1,-1,-1,-1,-1],"loss_changes":[7.3059797E0,2.0288782E0,4.364014E0,1.2965078E0,2.1522522E0,3.2455592E0,1.1470354E0,1.5483134E0,6.454878E-1,2.183024E0,2.057834E0,2.9392972E0,1.6790078E0,0E0,1.2440238E0,0E0,0E0,0E0,0E0,0E0,0E0,0E0,0E0,0E0,0E0,0E0,0E0,0E0,0E0],"parents":[2147483647,0,0,1,1,2,2,3,3,4,4,5,5,6,6,7,7,8,8,9,9,10,10,11,11,12,12,14,14],"right_children":[2,4,6,8,10,12,14,16,18,20,22,24,26,-1,28,-1,-1,-1,-1,-1,-1,-1,-1,-1,-1,-1,-1,-1,-1],"split_conditions":[9.5664287E-1,3.33873E3,2.809E0,3.31364E3,8.9428574E-1,5.1113724E-4,-3.68E0,3.31348E3,2.6266116E-5,6.4E-1,-2.846154E-1,-4.554094E-4,-2.1367522E-1,4.1782122E-2,-8.020003E-5,3.526891E-2,-4.3028995E-2,4.4470247E-2,8.068774E-2,5.9189867E-2,5.249826E-3,6.274249E-2,-3.9659396E-2,-1.652705E-2,1.0395325E-2,7.736241E-3,-4.4381376E-2,-1.4148648E-2,-5.292588E-2],"split_indices":[6,2,6,0,6,5,8,1,5,3,4,5,4,0,5,0,0,0,0,0,0,0,0,0,0,0,0,0,0],"split_type":[0,0,0,0,0,0,0,0,0,0,0,0,0,0,0,0,0,0,0,0,0,0,0,0,0,0,0,0,0],"sum_hessian":[6.9583246E2,9.6663704E1,5.9916876E2,5.6339233E1,4.0324474E1,5.637272E2,3.544155E1,2.6191866E1,3.0147366E1,2.9701416E1,1.0623057E1,5.37379E2,2.6348154E1,1.3393979E0,3.4102154E1,2.4231775E1,1.9600909E0,1.881651E1,1.1330855E1,1.2834909E1,1.6866507E1,1.4944274E0,9.128631E0,4.3280212E1,4.9409885E2,8.9008465E0,1.7447308E1,1.8304762E1,1.5797394E1],"tree_param":{"num_deleted":"0","num_feature":"9","num_nodes":"29","size_leaf_vector":"1"}},{"base_weights":[-4.2101715E-2,-2.7223295E-1,1.234278E-1,-3.4906793E-1,-1.682073E-1,2.3888584E-2,3.4067443E-1,9.40187E-2,-3.731816E-1,-3.112172E-1,-1.9390343E-2,-2.817549E-1,6.466482E-2,2.6580712E-1,6.059776E-1,-4.7307413E-2,4.0591504E-2,1.3371892E-2,-3.9634313E-2,5.1320065E-3,-4.0420506E-2,-3.9687857E-2,8.177759E-3,7.251361E-2,-3.6373537E-2,6.741262E-2,9.353784E-5,3.8406584E-2,2.4214159E-3,6.811895E-2,2.4908131E-2],"categories":[],"categories_nodes":[],"categories_segments":[],"categories_sizes":[],"default_left":[0,0,0,0,0,0,0,0,0,0,0,0,0,0,0,0,0,0,0,0,0,0,0,0,0,0,0,0,0,0,0],"id":29,"left_children":[1,3,5,7,9,11,13,15,17,19,21,23,25,27,29,-1,-1,-1,-1,-1,-1,-1,-1,-1,-1,-1,-1,-1,-1,-1,-1],"loss_changes":[2.4179369E1,2.0633183E0,7.9791546E0,1.656702E0,2.435457E0,3.1885302E0,2.142664E0,1.7188542E0,1.7453022E0,1.9906654E0,2.220142E0,2.7507584E0,8.748188E0,2.6260076E0,4.9456215E-1,0E0,0E0,0E0,0E0,0E0,0E0,0E0,0E0,0E0,0E0,0E0,0E0,0E0,0E0,0E0,0E0],"parents":[2147483647,0,0,1,1,2,2,3,3,4,4,5,5,6,6,7,7,8,8,9,9,10,10,11,11,12,12,13,13,14,14],"right_children":[2,4,6,8,10,12,14,16,18,20,22,24,26,28,30,-1,-1,-1,-1,-1,-1,-1,-1,-1,-1,-1,-1,-1,-1,-1,-1],"split_conditions":[-1.14963495E-5,-1.4402893E-4,3.1269243E-4,4.3E-1,1.379E0,3.29885E3,6.515496E-4,3.3E-1,-4.2391303E-1,3.30954E3,3.3007E3,9.025602E-7,3.30412E3,1.53E0,2.7419356E-1,-4.7307413E-2,4.0591504E-2,1.3371892E-2,-3.9634313E-2,5.1320065E-3,-4.0420506E-2,-3.9687857E-2,8.177759E-3,7.251361E-2,-3.6373537E-2,6.741262E-2,9.353784E-5,3.8406584E-2,2.4214159E-3,6.811895E-2,2.4908131E-2],"split_indices":[5,5,5,3,6,2,5,3,4,0,0,5,2,3,4,0,0,0,0,0,0,0,0,0,0,0,0,0,0,0,0],"split_type":[0,0,0,0,0,0,0,0,0,0,0,0,0,0,0,0,0,0,0,0,0,0,0,0,0,0,0,0,0,0,0],"sum_hessian":[6.328551E2,2.6449298E2,3.6836212E2,1.5077362E2,1.13719345E2,2.5337799E2,1.14984116E2,7.632274E0,1.4314136E2,5.743463E1,5.6284714E1,2.912889E1,2.242491E2,9.1238846E1,2.3745268E1,2.5248327E0,5.1074414E0,6.0461073E0,1.3709525E2,1.1815795E1,4.561884E1,1.1278446E1,4.500627E1,1.6024333E0,2.7526455E1,2.032243E1,2.0392668E2,6.085894E1,3.0379906E1,1.8861721E1,4.883548E0],"tree_param":{"num_deleted":"0","num_feature":"9","num_nodes":"31","size_leaf_vector":"1"}},{"base_weights":[-4.8715014E-2,1.9972049E-1,-1.9291933E-1,-8.363792E-2,2.3485106E-1,-1.1500127E-1,-3.112261E-1,-4.11298E-1,1.1613028E-1,2.4736308E-1,-4.6128505E-1,1.8904857E-1,-1.4518698E-1,-3.562606E-1,-3.8501054E-2,-5.9528288E-2,5.0470192E-2,-5.345679E-2,3.4401964E-2,5.133288E-2,1.9662533E-2,-1.37442E-2,-5.986212E-2,-1.4077753E-2,9.399133E-2,-5.422607E-2,-9.425449E-3,-5.9926577E-2,-3.0995905E-2,1.8099023E-2,-4.8230343E-2],"categories":[],"categories_nodes":[],"categories_segments":[],"categories_sizes":[],"default_left":[0,0,0,0,0,0,0,0,0,0,0,0,0,0,0,0,0,0,0,0,0,0,0,0,0,0,0,0,0,0,0],"id":30,"left_children":[1,3,5,7,9,11,13,15,17,19,21,23,25,27,29,-1,-1,-1,-1,-1,-1,-1,-1,-1,-1,-1,-1,-1,-1,-1,-1],"loss_changes":[2.24317E1,2.3097582E0,3.6146793E0,1.7570581E0,1.8991776E0,2.23331E0,1.9104137E0,2.0044394E0,2.705179E0,2.6246347E0,9.418386E-2,5.615505E0,4.382041E0,1.3257561E0,2.3593113E0,0E0,0E0,0E0,0E0,0E0,0E0,0E0,0E0,0E0,0E0,0E0,0E0,0E0,0E0,0E0,0E0],"parents":[2147483647,0,0,1,1,2,2,3,3,4,4,5,5,6,6,7,7,8,8,9,9,10,10,11,11,12,12,13,13,14,14],"right_children":[2,4,6,8,10,12,14,16,18,20,22,24,26,28,30,-1,-1,-1,-1,-1,-1,-1,-1,-1,-1,-1,-1,-1,-1,-1,-1],"split_conditions":[-1.21735844E-4,1.0269285E0,1.4919954E-4,3.32935E3,4.155857E0,3.29556E3,2.4664285E0,-1.2904403E-4,6.1E-1,6.3E-1,3.33725E3,2.0875714E0,3.30436E3,1.8588798E-4,6.1E-1,-5.9528288E-2,5.0470192E-2,-5.345679E-2,3.4401964E-2,5.133288E-2,1.9662533E-2,-1.37442E-2,-5.986212E-2,-1.4077753E-2,9.399133E-2,-5.422607E-2,-9.425449E-3,-5.9926577E-2,-3.0995905E-2,1.8099023E-2,-4.8230343E-2],"split_indices":[5,6,5,1,6,0,6,5,3,3,0,6,0,5,8,0,0,0,0,0,0,0,0,0,0,0,0,0,0,0,0],"split_type":[0,0,0,0,0,0,0,0,0,0,0,0,0,0,0,0,0,0,0,0,0,0,0,0,0,0,0,0,0,0,0],"sum_hessian":[6.240628E2,2.2905734E2,3.9500546E2,2.511361E1,2.0394374E2,2.3934344E2,1.5566202E2,9.110946E0,1.6002663E1,2.0097615E2,2.9675846E0,2.1140446E1,2.18203E2,1.333379E2,2.232411E1,7.8786025E0,1.2323434E0,3.8017366E0,1.2200927E1,3.073691E1,1.7023924E2,1.4795434E0,1.4880413E0,1.5252931E1,5.8875155E0,2.371015E1,1.9449286E2,1.9428476E1,1.1390943E2,1.53330345E1,6.991075E0],"tree_param":{"num_deleted":"0","num_feature":"9","num_nodes":"31","size_leaf_vector":"1"}},{"base_weights":[7.933943E-2,3.15853E-1,4.082389E-2,4.3173504E-1,1.474996E-1,6.0993828E-2,-2.7871603E-1,2.5686815E-1,5.7103753E-1,2.7578875E-1,-2.0445953E-1,7.156326E-2,-4.1709027E-1,-6.1363813E-2,-1.7374167E-1,-7.5083375E-3,4.137753E-2,4.179014E-2,7.7075265E-2,5.562481E-2,4.473697E-3,6.0883828E-2,-3.8565304E-2,1.3387552E-2,-5.823523E-4,1.6005434E-2,-4.830175E-2,5.2467085E-2,-2.2333069E-2],"categories":[],"categories_nodes":[],"categories_segments":[],"categories_sizes":[],"default_left":[0,0,0,0,0,0,0,0,0,0,0,0,0,0,0,0,0,0,0,0,0,0,0,0,0,0,0,0,0],"id":31,"left_children":[1,3,5,7,9,11,13,15,17,19,21,23,25,-1,27,-1,-1,-1,-1,-1,-1,-1,-1,-1,-1,-1,-1,-1,-1],"loss_changes":[6.3240952E0,1.8340054E0,3.8800554E0,1.2441244E0,1.9156029E0,2.8828743E0,1.1508923E0,1.4443377E0,6.2482166E-1,1.9581816E0,1.9403542E0,2.668645E0,5.475569E-1,0E0,1.1086228E0,0E0,0E0,0E0,0E0,0E0,0E0,0E0,0E0,0E0,0E0,0E0,0E0,0E0,0E0],"parents":[2147483647,0,0,1,1,2,2,3,3,4,4,5,5,6,6,7,7,8,8,9,9,10,10,11,11,12,12,14,14],"right_children":[2,4,6,8,10,12,14,16,18,20,22,24,26,-1,28,-1,-1,-1,-1,-1,-1,-1,-1,-1,-1,-1,-1,-1,-1],"split_conditions":[9.5664287E-1,3.33873E3,2.809E0,3.31364E3,8.9428574E-1,6.8499404E-4,-3.75E-1,-2.3775215E-1,2.6266116E-5,6.4E-1,-2.846154E-1,-1.908397E-2,-1.76E0,-6.1363813E-2,-2.96E0,-7.5083375E-3,4.137753E-2,4.179014E-2,7.7075265E-2,5.562481E-2,4.473697E-3,6.0883828E-2,-3.8565304E-2,1.3387552E-2,-5.823523E-4,1.6005434E-2,-4.830175E-2,5.2467085E-2,-2.2333069E-2],"split_indices":[6,2,6,0,6,5,4,4,5,3,4,4,7,0,8,0,0,0,0,0,0,0,0,0,0,0,0,0,0],"split_type":[0,0,0,0,0,0,0,0,0,0,0,0,0,0,0,0,0,0,0,0,0,0,0,0,0,0,0,0,0],"sum_hessian":[6.9465027E2,9.62716E1,5.9837866E2,5.6095287E1,4.017631E1,5.636116E2,3.4767067E1,2.6133627E1,2.9961662E1,2.9602585E1,1.0573729E1,5.5225275E2,1.1358832E1,7.140285E0,2.762678E1,8.555389E0,1.7578238E1,1.870877E1,1.12528925E1,1.2735861E1,1.6866724E1,1.4964898E0,9.077239E0,3.05518E2,2.4673474E2,1.0181273E0,1.0340705E1,1.1963915E0,2.643039E1],"tree_param":{"num_deleted":"0","num_feature":"9","num_nodes":"29","size_leaf_vector":"1"}},{"base_weights":[-3.9430603E-2,-2.5913918E-1,1.1556793E-1,-3.3406857E-1,-1.5955195E-1,2.2647368E-2,3.1877023E-1,4.1079134E-2,-3.4700674E-1,-2.980406E-1,-1.790876E-2,3.4045157E-1,-1.5366097E-2,8.454098E-3,3.7556493E-1,9.523529E-3,-3.7210997E-2,-3.9355133E-2,4.8587173E-3,-3.8449604E-2,7.848209E-3,-5.4056622E-2,4.6717275E-2,3.3544E-2,-5.186392E-3,7.411947E-2,-1.7586311E-2,-1.8077934E-2,4.0741924E-2],"categories":[],"categories_nodes":[],"categories_segments":[],"categories_sizes":[],"default_left":[0,0,0,0,0,0,0,0,0,0,0,0,0,0,0,0,0,0,0,0,0,0,0,0,0,0,0,0,0],"id":32,"left_children":[1,3,5,7,9,11,13,-1,15,17,19,21,23,25,27,-1,-1,-1,-1,-1,-1,-1,-1,-1,-1,-1,-1,-1,-1],"loss_changes":[2.1399023E1,1.8858795E0,6.9529877E0,1.5628815E0,2.22092E0,3.0741105E0,2.0340853E0,0E0,1.6497097E0,1.9168324E0,2.050349E0,3.2872467E0,2.9346664E0,2.6837606E0,1.8048668E0,0E0,0E0,0E0,0E0,0E0,0E0,0E0,0E0,0E0,0E0,0E0,0E0,0E0,0E0],"parents":[2147483647,0,0,1,1,2,2,3,3,4,4,5,5,6,6,8,8,9,9,10,10,11,11,12,12,13,13,14,14],"right_children":[2,4,6,8,10,12,14,-1,16,18,20,22,24,26,28,-1,-1,-1,-1,-1,-1,-1,-1,-1,-1,-1,-1,-1,-1],"split_conditions":[-1.14963495E-5,-1.4402893E-4,3.1269243E-4,-6.84E0,1.379E0,-3.8372093E-1,-2.9347825E-1,4.1079134E-2,4.3E-1,6.1E-1,3.3007E3,3.30197E3,-2.38E0,8.8E-1,5.3E-1,9.523529E-3,-3.7210997E-2,-3.9355133E-2,4.8587173E-3,-3.8449604E-2,7.848209E-3,-5.4056622E-2,4.6717275E-2,3.3544E-2,-5.186392E-3,7.411947E-2,-1.7586311E-2,-1.8077934E-2,4.0741924E-2],"split_indices":[5,5,5,8,6,4,4,0,3,7,0,2,8,3,3,0,0,0,0,0,0,0,0,0,0,0,0,0,0],"split_type":[0,0,0,0,0,0,0,0,0,0,0,0,0,0,0,0,0,0,0,0,0,0,0,0,0,0,0,0,0],"sum_hessian":[6.264962E2,2.5887378E2,3.676224E2,1.4638171E2,1.1249207E2,2.5302866E2,1.1459375E2,1.9742172E0,1.444075E2,5.6321125E1,5.617095E1,2.6182112E1,2.2684654E2,1.790622E1,9.668753E1,7.6067233E0,1.3680078E2,4.404851E1,1.22726145E1,1.107236E1,4.509859E1,2.881682E0,2.330043E1,2.060517E1,2.0624136E2,2.9916837E0,1.4914535E1,4.9829917E0,9.170454E1],"tree_param":{"num_deleted":"0","num_feature":"9","num_nodes":"29","size_leaf_vector":"1"}},{"base_weights":[-4.6038695E-2,1.4321464E-1,-2.139877E-1,2.9928613E-1,6.5322384E-2,-2.639679E-1,-3.4491614E-2,1.6313812E-1,4.8570466E-1,-2.0675188E-2,1.7636372E-1,-3.9233416E-1,-1.7200139E-1,2.7543116E-1,-3.3065075E-1,-1.8919574E-2,2.9635713E-2,6.4424746E-2,-2.0949038E-2,-1.353243E-2,1.6312856E-2,1.1713254E-2,8.394419E-2,3.886815E-2,-4.0731076E-2,4.537588E-3,-2.3066081E-2,-2.3773E-2,5.22088E-2,-5.056857E-2,-1.0944029E-2],"categories":[],"categories_nodes":[],"categories_segments":[],"categories_sizes":[],"default_left":[0,0,0,0,0,0,0,0,0,0,0,0,0,0,0,0,0,0,0,0,0,0,0,0,0,0,0,0,0,0,0],"id":33,"left_children":[1,3,5,7,9,11,13,15,17,19,21,23,25,27,29,-1,-1,-1,-1,-1,-1,-1,-1,-1,-1,-1,-1,-1,-1,-1,-1],"loss_changes":[1.9714073E1,3.5273867E0,2.9379797E0,2.3790436E0,1.8744423E0,2.9641953E0,6.763825E0,2.7541173E0,4.585064E0,2.3674915E0,3.2639816E0,1.4029751E0,1.9409423E0,4.6895933E0,1.4016466E0,0E0,0E0,0E0,0E0,0E0,0E0,0E0,0E0,0E0,0E0,0E0,0E0,0E0,0E0,0E0,0E0],"parents":[2147483647,0,0,1,1,2,2,3,3,4,4,5,5,6,6,7,7,8,8,9,9,10,10,11,11,12,12,13,13,14,14],"right_children":[2,4,6,8,10,12,14,16,18,20,22,24,26,28,30,-1,-1,-1,-1,-1,-1,-1,-1,-1,-1,-1,-1,-1,-1,-1,-1],"split_conditions":[-5.1321636E-5,-3.6013403E-4,2.0387857E0,3.33098E3,-1.0810811E-2,1.03E0,2.6542763E-4,-2.5420874E-1,2.037037E-1,1.6677858E0,-7.0572496E-5,2.6E-1,2.0622932E-5,-2.672956E-1,2.5049286E0,-1.8919574E-2,2.9635713E-2,6.4424746E-2,-2.0949038E-2,-1.353243E-2,1.6312856E-2,1.1713254E-2,8.394419E-2,3.886815E-2,-4.0731076E-2,4.537588E-3,-2.3066081E-2,-2.3773E-2,5.22088E-2,-5.056857E-2,-1.0944029E-2],"split_indices":[5,5,6,2,4,3,5,4,4,6,5,3,5,4,6,0,0,0,0,0,0,0,0,0,0,0,0,0,0,0,0],"split_type":[0,0,0,0,0,0,0,0,0,0,0,0,0,0,0,0,0,0,0,0,0,0,0,0,0,0,0,0,0,0,0],"sum_hessian":[6.182696E2,2.9076657E2,3.2750305E2,9.585703E1,1.9490952E2,2.5580437E2,7.169868E1,5.648164E1,3.9375397E1,1.10299934E2,8.460958E1,1.0540906E2,1.5039531E2,3.506943E1,3.662925E1,1.5381332E1,4.1100307E1,3.2122894E1,7.252503E0,6.8091225E1,4.2208714E1,7.875155E1,5.8580365E0,1.5137845E0,1.0389527E2,3.200801E1,1.183873E2,1.1396205E1,2.3673225E1,1.9730947E1,1.68983E1],"tree_param":{"num_deleted":"0","num_feature":"9","num_nodes":"31","size_leaf_vector":"1"}},{"base_weights":[7.436389E-2,2.977687E-1,3.815803E-2,4.087884E-1,1.3680129E-1,5.7066344E-2,-2.665482E-1,2.4002193E-1,5.4392195E-1,4.0097332E-1,-3.0718422E-2,4.108621E-2,3.563301E-1,-5.987909E-2,-1.6441298E-1,3.0952374E-2,-4.295365E-2,3.9441716E-2,7.4020945E-2,-2.4181457E-2,5.9072465E-2,1.723342E-2,-4.390977E-2,9.1849975E-3,-1.0634539E-2,1.04723886E-1,1.0610292E-2,5.1030427E-2,-2.1354517E-2],"categories":[],"categories_nodes":[],"categories_segments":[],"categories_sizes":[],"default_left":[0,0,0,0,0,0,0,0,0,0,0,0,0,0,0,0,0,0,0,0,0,0,0,0,0,0,0,0,0],"id":34,"left_children":[1,3,5,7,9,11,13,15,17,19,21,23,25,-1,27,-1,-1,-1,-1,-1,-1,-1,-1,-1,-1,-1,-1,-1,-1],"loss_changes":[5.609273E0,1.6732912E0,3.4670486E0,1.1639977E0,1.8267251E0,2.687064E0,1.0954134E0,1.3908325E0,6.0993767E-1,2.0920837E0,2.2331927E0,4.0320215E0,4.8173437E0,0E0,1.0467408E0,0E0,0E0,0E0,0E0,0E0,0E0,0E0,0E0,0E0,0E0,0E0,0E0,0E0,0E0],"parents":[2147483647,0,0,1,1,2,2,3,3,4,4,5,5,6,6,7,7,8,8,9,9,10,10,11,11,12,12,14,14],"right_children":[2,4,6,8,10,12,14,16,18,20,22,24,26,-1,28,-1,-1,-1,-1,-1,-1,-1,-1,-1,-1,-1,-1,-1,-1],"split_conditions":[9.5664287E-1,3.33873E3,2.809E0,3.31364E3,-2.8E-1,3.54E0,-3.75E-1,3.31348E3,2.6266116E-5,-8.7E-1,8.5E-1,1.2975779E-1,3.30362E3,-5.987909E-2,-2.96E0,3.0952374E-2,-4.295365E-2,3.9441716E-2,7.4020945E-2,-2.4181457E-2,5.9072465E-2,1.723342E-2,-4.390977E-2,9.1849975E-3,-1.0634539E-2,1.04723886E-1,1.0610292E-2,5.1030427E-2,-2.1354517E-2],"split_indices":[6,2,6,0,8,8,4,1,5,7,3,4,2,0,8,0,0,0,0,0,0,0,0,0,0,0,0,0,0],"split_type":[0,0,0,0,0,0,0,0,0,0,0,0,0,0,0,0,0,0,0,0,0,0,0,0,0,0,0,0,0],"sum_hessian":[6.938868E2,9.576339E1,5.981234E2,5.576355E1,3.999984E1,5.6394116E2,3.4182228E1,2.6030542E1,2.9733006E1,1.498131E1,2.5018532E1,5.364339E2,2.7507292E1,6.8938894E0,2.7288338E1,2.4069761E1,1.9607811E0,1.8586073E1,1.1146934E1,3.3519864E0,1.1629324E1,1.709609E1,7.922441E0,3.9931754E2,1.3711633E2,6.466718E0,2.1040575E1,1.2151194E0,2.607322E1],"tree_param":{"num_deleted":"0","num_feature":"9","num_nodes":"29","size_leaf_vector":"1"}},{"base_weights":[-3.7253816E-2,-2.1758081E-1,1.3175745E-1,-3.194557E-1,-1.2449531E-1,4.9885307E-2,3.2755724E-1,9.8884284E-2,-3.43555E-1,-1.7867671E-1,1.5712135E-1,2.9615471E-2,7.729537E-1,-1.9148255E-2,3.8142574E-1,-2.2788897E-2,6.441131E-2,1.6005063E-2,-3.6763754E-2,3.986909E-3,-2.5838926E-2,5.744691E-2,-1.4756595E-2,6.203412E-3,-6.0765665E-2,-4.78473E-3,1.0224741E-1,-3.8066775E-2,5.4361757E-2,2.0322984E-2,4.845361E-2],"categories":[],"categories_nodes":[],"categories_segments":[],"categories_sizes":[],"default_left":[0,0,0,0,0,0,0,0,0,0,0,0,0,0,0,0,0,0,0,0,0,0,0,0,0,0,0,0,0,0,0],"id":35,"left_children":[1,3,5,7,9,11,13,15,17,19,21,23,25,27,29,-1,-1,-1,-1,-1,-1,-1,-1,-1,-1,-1,-1,-1,-1,-1,-1],"loss_changes":[1.89792E1,2.816555E0,5.138912E0,1.4774017E0,2.4546056E0,3.3180177E0,1.7748785E0,1.6745652E0,1.7033901E0,2.3418684E0,3.4153194E0,4.6400466E0,1.3138049E0,2.9900315E0,1.4074879E0,0E0,0E0,0E0,0E0,0E0,0E0,0E0,0E0,0E0,0E0,0E0,0E0,0E0,0E0,0E0,0E0],"parents":[2147483647,0,0,1,1,2,2,3,3,4,4,5,5,6,6,7,7,8,8,9,9,10,10,11,11,12,12,13,13,14,14],"right_children":[2,4,6,8,10,12,14,16,18,20,22,24,26,28,30,-1,-1,-1,-1,-1,-1,-1,-1,-1,-1,-1,-1,-1,-1,-1,-1],"split_conditions":[3.760781E-5,-1.4402893E-4,3.485598E-4,4.3E-1,2.0197144E0,3.3543E3,-9.4E-1,3.33919E3,-4.2391303E-1,3.30891E3,2.2592857E0,3.35083E3,1E-1,6.199654E-4,-6.0606062E-2,-2.2788897E-2,6.441131E-2,1.6005063E-2,-3.6763754E-2,3.986909E-3,-2.5838926E-2,5.744691E-2,-1.4756595E-2,6.203412E-3,-6.0765665E-2,-4.78473E-3,1.0224741E-1,-3.8066775E-2,5.4361757E-2,2.0322984E-2,4.845361E-2],"split_indices":[5,5,5,3,6,0,7,0,4,0,6,0,8,5,4,0,0,0,0,0,0,0,0,0,0,0,0,0,0,0,0],"split_type":[0,0,0,0,0,0,0,0,0,0,0,0,0,0,0,0,0,0,0,0,0,0,0,0,0,0,0,0,0,0,0],"sum_hessian":[6.207918E2,3.0020258E2,3.2058926E2,1.4217317E2,1.580294E2,2.2694765E2,9.364161E1,7.5750203E0,1.3459814E2,1.3283774E2,2.519167E1,2.2177167E2,5.1759844E0,1.2679442E1,8.0962166E1,5.100285E0,2.474735E0,5.885098E0,1.2871304E2,3.5635815E1,9.720192E1,1.0256842E1,1.4934828E1,2.1189502E2,9.876647E0,1.3950824E0,3.780902E0,7.917095E0,4.7623467E0,3.076496E1,5.019721E1],"tree_param":{"num_deleted":"0","num_feature":"9","num_nodes":"31","size_leaf_vector":"1"}},{"base_weights":[-4.3503586E-2,1.7374471E-1,-1.7313015E-1,3.474097E-1,1.2503833E-1,-9.877085E-2,-2.796906E-1,-5.3628523E-2,4.1409537E-1,1.7789724E-1,-2.886984E-2,2.12981E-1,-1.3040528E-1,-3.3512974E-1,-1.6766677E-2,-1.3251962E-2,5.2620232E-2,1.2687268E-2,6.7445E-2,-3.821432E-2,1.5355128E-2,-3.3210244E-2,5.992603E-2,-5.243647E-2,-8.008216E-3,-5.559917E-2,-2.8041918E-2,1.5710888E-2,-5.417065E-2],"categories":[],"categories_nodes":[],"categories_segments":[],"categories_sizes":[],"default_left":[0,0,0,0,0,0,0,0,0,0,0,0,0,0,0,0,0,0,0,0,0,0,0,0,0,0,0,0,0],"id":36,"left_children":[1,3,5,7,9,11,13,-1,15,17,19,21,23,25,27,-1,-1,-1,-1,-1,-1,-1,-1,-1,-1,-1,-1,-1,-1],"loss_changes":[1.7310608E1,1.900444E0,3.0215855E0,3.1552305E0,1.4779551E0,2.2783153E0,2.291851E0,0E0,2.9403954E0,3.3322124E0,3.0967073E0,4.705466E0,4.0776668E0,1.4163609E0,2.6864052E0,0E0,0E0,0E0,0E0,0E0,0E0,0E0,0E0,0E0,0E0,0E0,0E0,0E0,0E0],"parents":[2147483647,0,0,1,1,2,2,3,3,4,4,5,5,6,6,8,8,9,9,10,10,11,11,12,12,13,13,14,14],"right_children":[2,4,6,8,10,12,14,-1,16,18,20,22,24,26,28,-1,-1,-1,-1,-1,-1,-1,-1,-1,-1,-1,-1,-1,-1],"split_conditions":[-1.21735844E-4,-5.1666406E-4,1.3559431E-4,-3.42E0,1.4179105E-1,3.29556E3,2.4097142E0,-5.3628523E-2,3.30212E3,7.643312E-2,1E-2,3.29005E3,3.30436E3,1.8588798E-4,3.33653E3,-1.3251962E-2,5.2620232E-2,1.2687268E-2,6.7445E-2,-3.821432E-2,1.5355128E-2,-3.3210244E-2,5.992603E-2,-5.243647E-2,-8.008216E-3,-5.559917E-2,-2.8041918E-2,1.5710888E-2,-5.417065E-2],"split_indices":[5,5,5,8,4,0,6,0,0,4,7,1,0,5,0,0,0,0,0,0,0,0,0,0,0,0,0,0,0],"split_type":[0,0,0,0,0,0,0,0,0,0,0,0,0,0,0,0,0,0,0,0,0,0,0,0,0,0,0,0,0],"sum_hessian":[6.1263007E2,2.2881166E2,3.838184E2,4.877375E1,1.800379E2,2.272012E2,1.5661717E2,2.9282076E0,4.5845543E1,1.3389613E2,4.614177E1,2.0402779E1,2.0679843E2,1.2911736E2,2.7499819E1,7.771397E0,3.8074146E1,1.2255789E2,1.1338246E1,1.5339922E1,3.0801847E1,8.520147E0,1.1882631E1,2.2356722E1,1.8444171E2,2.3815159E1,1.0530219E2,2.1183823E1,6.3159966E0],"tree_param":{"num_deleted":"0","num_feature":"9","num_nodes":"29","size_leaf_vector":"1"}},{"base_weights":[6.951778E-2,3.2263216E-1,4.102442E-2,3.7470022E-1,-1.5623541E-2,8.465833E-2,-8.008912E-2,2.136224E-1,5.1893353E-1,3.779468E-1,-4.7711083E-1,1.10870324E-1,-2.4398462E-1,-1.1936081E-1,4.120513E-1,-2.5803968E-2,2.9307967E-2,3.588903E-2,7.068237E-2,-2.1531792E-2,7.600468E-2,-6.0317613E-2,-8.524566E-3,1.8771345E-3,1.7784405E-2,6.874688E-2,-3.0667454E-2,2.7972262E-3,-2.3567181E-2,-5.0160892E-2,6.450566E-2],"categories":[],"categories_nodes":[],"categories_segments":[],"categories_sizes":[],"default_left":[0,0,0,0,0,0,0,0,0,0,0,0,0,0,0,0,0,0,0,0,0,0,0,0,0,0,0,0,0,0,0],"id":37,"left_children":[1,3,5,7,9,11,13,15,17,19,21,23,25,27,29,-1,-1,-1,-1,-1,-1,-1,-1,-1,-1,-1,-1,-1,-1,-1,-1],"loss_changes":[4.9925714E0,1.2401733E0,3.3097117E0,1.3010912E0,2.0526865E0,3.9892864E0,3.2584267E0,1.2153066E0,6.894531E-1,1.5513804E0,2.048229E-1,2.628439E0,2.2129927E0,2.6550748E0,2.9837422E0,0E0,0E0,0E0,0E0,0E0,0E0,0E0,0E0,0E0,0E0,0E0,0E0,0E0,0E0,0E0,0E0],"parents":[2147483647,0,0,1,1,2,2,3,3,4,4,5,5,6,6,7,7,8,8,9,9,10,10,11,11,12,12,13,13,14,14],"right_children":[2,4,6,8,10,12,14,16,18,20,22,24,26,28,30,-1,-1,-1,-1,-1,-1,-1,-1,-1,-1,-1,-1,-1,-1,-1,-1],"split_conditions":[9.039286E-1,1.7983538E-4,1.9910715E0,-1.3177318E-5,1.9E-1,3.8810848E-4,3.42E0,-1.11E0,1.6129032E-2,-1.9871795E-1,8.4421426E-1,-5.7674388E-5,-3.34E0,-8.416028E-5,2.0922143E0,-2.5803968E-2,2.9307967E-2,3.588903E-2,7.068237E-2,-2.1531792E-2,7.600468E-2,-6.0317613E-2,-8.524566E-3,1.8771345E-3,1.7784405E-2,6.874688E-2,-3.0667454E-2,2.7972262E-3,-2.3567181E-2,-5.0160892E-2,6.450566E-2],"split_indices":[6,5,6,5,7,5,8,7,4,4,6,5,8,5,6,0,0,0,0,0,0,0,0,0,0,0,0,0,0,0,0],"split_type":[0,0,0,0,0,0,0,0,0,0,0,0,0,0,0,0,0,0,0,0,0,0,0,0,0,0,0,0,0,0,0],"sum_hessian":[6.9308655E2,6.9082695E1,6.2400385E2,5.9773895E1,9.308802E0,4.5895563E2,1.650482E2,2.941014E1,3.0363756E1,5.1218E0,4.1870017E0,4.2566776E2,3.3287884E1,1.5355254E2,1.1495678E1,3.9161518E0,2.5493988E1,1.796847E1,1.2395287E1,2.1774638E0,2.944336E0,2.759886E0,1.4271156E0,1.7975616E2,2.4591159E2,1.4706485E0,3.1817234E1,6.807733E1,8.54752E1,2.1017034E0,9.393974E0],"tree_param":{"num_deleted":"0","num_feature":"9","num_nodes":"31","size_leaf_vector":"1"}},{"base_weights":[-3.497766E-2,-2.3525538E-1,1.01257354E-1,-3.0582553E-1,-1.4490639E-1,-3.5388756E-3,2.4217257E-1,4.2174816E-2,-3.1931332E-1,-2.8627756E-1,-2.1189352E-2,5.3150322E-2,-2.8629252E-1,1.8894143E-1,5.320952E-1,1.0538868E-2,-3.4466516E-2,-3.9661903E-2,8.564972E-3,3.64073E-2,-9.932712E-3,2.4459534E-3,6.4132445E-2,-3.6220517E-2,4.5518663E-2,2.801969E-2,1.7337017E-3,6.089282E-2,1.5668401E-2],"categories":[],"categories_nodes":[],"categories_segments":[],"categories_sizes":[],"default_left":[0,0,0,0,0,0,0,0,0,0,0,0,0,0,0,0,0,0,0,0,0,0,0,0,0,0,0,0,0],"id":38,"left_children":[1,3,5,7,9,11,13,-1,15,17,19,21,23,25,27,-1,-1,-1,-1,-1,-1,-1,-1,-1,-1,-1,-1,-1,-1],"loss_changes":[1.6839085E1,1.5483952E0,5.427659E0,1.5021753E0,1.9431791E0,3.4091845E0,2.3185358E0,0E0,1.5155373E0,2.1652675E0,1.8578936E0,2.974932E0,2.1641095E0,2.0932937E0,5.9005594E-1,0E0,0E0,0E0,0E0,0E0,0E0,0E0,0E0,0E0,0E0,0E0,0E0,0E0,0E0],"parents":[2147483647,0,0,1,1,2,2,3,3,4,4,5,5,6,6,8,8,9,9,10,10,11,11,12,12,13,13,14,14],"right_children":[2,4,6,8,10,12,14,-1,16,18,20,22,24,26,28,-1,-1,-1,-1,-1,-1,-1,-1,-1,-1,-1,-1,-1,-1],"split_conditions":[-1.14963495E-5,-1.4402893E-4,2.3784624E-4,-6.84E0,1.3453572E0,9E-1,6.515496E-4,4.2174816E-2,4.3E-1,6.1E-1,-1.49E0,7.8E-1,5.44E0,1.5E0,1.25E0,1.0538868E-2,-3.4466516E-2,-3.9661903E-2,8.564972E-3,3.64073E-2,-9.932712E-3,2.4459534E-3,6.4132445E-2,-3.6220517E-2,4.5518663E-2,2.801969E-2,1.7337017E-3,6.089282E-2,1.5668401E-2],"split_indices":[5,5,5,8,6,7,5,0,3,7,8,7,8,3,7,0,0,0,0,0,0,0,0,0,0,0,0,0,0],"split_type":[0,0,0,0,0,0,0,0,0,0,0,0,0,0,0,0,0,0,0,0,0,0,0,0,0,0,0,0,0],"sum_hessian":[6.15286E2,2.4880034E2,3.664857E2,1.3835135E2,1.1044899E2,2.107382E2,1.557475E2,1.9671681E0,1.3638417E2,5.0933468E1,5.9515526E1,1.7621994E2,3.451826E1,1.3298291E2,2.2764582E1,7.5047793E0,1.288794E2,3.9228863E1,1.1704606E1,9.418372E0,5.0097153E1,1.6901698E2,7.202964E0,3.1776493E1,2.7417665E0,8.640292E1,4.657999E1,1.8380693E1,4.3838887E0],"tree_param":{"num_deleted":"0","num_feature":"9","num_nodes":"29","size_leaf_vector":"1"}},{"base_weights":[-4.1126054E-2,1.24238536E-1,-1.9253425E-1,3.730278E-2,2.4423735E-1,-2.4033278E-1,-2.4180392E-2,2.910837E-1,-4.318084E-2,2.6979926E-1,-5.0260586E-1,-3.69178E-1,-1.4945824E-1,2.5920293E-1,-3.0907845E-1,3.5669193E-2,-5.235911E-2,-8.509403E-3,3.407322E-2,4.971273E-2,1.5900837E-2,-8.879601E-3,-6.683983E-2,-5.0071407E-2,-2.5858616E-2,4.4318773E-3,-2.0708285E-2,-2.266101E-2,4.848257E-2,-4.8710506E-2,-9.288426E-3],"categories":[],"categories_nodes":[],"categories_segments":[],"categories_sizes":[],"default_left":[0,0,0,0,0,0,0,0,0,0,0,0,0,0,0,0,0,0,0,0,0,0,0,0,0,0,0,0,0,0,0],"id":39,"left_children":[1,3,5,7,9,11,13,15,17,19,21,23,25,27,29,-1,-1,-1,-1,-1,-1,-1,-1,-1,-1,-1,-1,-1,-1,-1,-1],"loss_changes":[1.5245222E1,3.028585E0,2.551177E0,3.485566E0,2.4675384E0,2.8412857E0,5.842834E0,2.3819187E0,2.120263E0,2.9119873E0,2.4194968E-1,1.3489552E0,1.6477606E0,4.091792E0,1.3422563E0,0E0,0E0,0E0,0E0,0E0,0E0,0E0,0E0,0E0,0E0,0E0,0E0,0E0,0E0,0E0,0E0],"parents":[2147483647,0,0,1,1,2,2,3,3,4,4,5,5,6,6,7,7,8,8,9,9,10,10,11,11,12,12,13,13,14,14],"right_children":[2,4,6,8,10,12,14,16,18,20,22,24,26,28,30,-1,-1,-1,-1,-1,-1,-1,-1,-1,-1,-1,-1,-1,-1,-1,-1],"split_conditions":[-5.1321636E-5,3.33098E3,2.0387857E0,9.1E-1,4.155857E0,1.03E0,2.6542763E-4,3.32E0,3.372093E-1,-3.6013403E-4,3.33687E3,1E-2,2.6266116E-5,-2.672956E-1,2.5049286E0,3.5669193E-2,-5.235911E-2,-8.509403E-3,3.407322E-2,4.971273E-2,1.5900837E-2,-8.879601E-3,-6.683983E-2,-5.0071407E-2,-2.5858616E-2,4.4318773E-3,-2.0708285E-2,-2.266101E-2,4.848257E-2,-4.8710506E-2,-9.288426E-3],"split_indices":[5,2,6,3,6,3,5,8,4,5,0,7,5,4,6,0,0,0,0,0,0,0,0,0,0,0,0,0,0,0,0],"split_type":[0,0,0,0,0,0,0,0,0,0,0,0,0,0,0,0,0,0,0,0,0,0,0,0,0,0,0,0,0,0,0],"sum_hessian":[6.0693884E2,2.9018494E2,3.1675394E2,1.6903484E2,1.211501E2,2.4637602E2,7.03779E1,4.0069866E1,1.2896497E2,1.1775838E2,3.3917222E0,1.0063276E2,1.4574327E2,3.532796E1,3.504994E1,3.7603695E1,2.4661722E0,1.1697295E2,1.1992016E1,3.7443092E1,8.0315285E1,1.4094322E0,1.9822901E0,4.435275E1,5.628001E1,3.3459225E1,1.1228404E2,1.1202424E1,2.4125536E1,1.8534494E1,1.6515444E1],"tree_param":{"num_deleted":"0","num_feature":"9","num_nodes":"31","size_leaf_vector":"1"}},{"base_weights":[6.518139E-2,3.0516738E-1,3.8345728E-2,3.5462877E-1,-1.584513E-2,5.5099323E-2,-2.511383E-1,1.9802552E-1,4.9595407E-1,3.6268944E-1,-4.6247205E-1,6.297405E-2,-4.370822E-1,-5.874151E-2,-1.4934084E-1,3.712487E-2,-2.1214269E-3,3.4089234E-2,6.801821E-2,-3.86638E-2,6.282634E-2,-5.8606785E-2,-8.206349E-3,1.9431006E-2,3.4672671E-3,-5.271975E-2,1.28689995E-2,4.983295E-2,-1.9827772E-2],"categories":[],"categories_nodes":[],"categories_segments":[],"categories_sizes":[],"default_left":[0,0,0,0,0,0,0,0,0,0,0,0,0,0,0,0,0,0,0,0,0,0,0,0,0,0,0,0,0],"id":40,"left_children":[1,3,5,7,9,11,13,15,17,19,21,23,25,-1,27,-1,-1,-1,-1,-1,-1,-1,-1,-1,-1,-1,-1,-1,-1],"loss_changes":[4.450433E0,1.1097665E0,3.0417144E0,1.2363305E0,1.8991998E0,2.3180513E0,1.0876341E0,1.157383E0,6.545849E-1,1.4575737E0,1.93465E-1,2.1585956E0,5.4876053E-1,0E0,9.766724E-1,0E0,0E0,0E0,0E0,0E0,0E0,0E0,0E0,0E0,0E0,0E0,0E0,0E0,0E0],"parents":[2147483647,0,0,1,1,2,2,3,3,4,4,5,5,6,6,7,7,8,8,9,9,10,10,11,11,12,12,14,14],"right_children":[2,4,6,8,10,12,14,16,18,20,22,24,26,-1,28,-1,-1,-1,-1,-1,-1,-1,-1,-1,-1,-1,-1,-1,-1],"split_conditions":[9.039286E-1,1.7983538E-4,2.809E0,-1.3177318E-5,1.9E-1,7.4174214E-4,-3.75E-1,-6.962025E-2,1.6129032E-2,-2.8881988E-1,8.4421426E-1,3.30148E3,3.42E0,-5.874151E-2,-2.96E0,3.712487E-2,-2.1214269E-3,3.4089234E-2,6.801821E-2,-3.86638E-2,6.282634E-2,-5.8606785E-2,-8.206349E-3,1.9431006E-2,3.4672671E-3,-5.271975E-2,1.28689995E-2,4.983295E-2,-1.9827772E-2],"split_indices":[6,5,6,5,7,5,4,4,4,4,6,0,8,0,8,0,0,0,0,0,0,0,0,0,0,0,0,0,0],"split_type":[0,0,0,0,0,0,0,0,0,0,0,0,0,0,0,0,0,0,0,0,0,0,0,0,0,0,0,0,0],"sum_hessian":[6.918583E2,6.8540695E1,6.2331757E2,5.92992E1,9.2415E0,5.8998254E2,3.333498E1,2.9268183E1,3.0031015E1,5.1037765E0,4.137723E0,5.8155005E2,8.432538E0,6.637685E0,2.6697294E1,1.5962631E1,1.3305552E1,1.785399E1,1.2177026E1,1.2162424E0,3.8875341E0,2.714988E0,1.422735E0,1.02060425E2,4.794896E2,7.332767E0,1.0997708E0,1.2303773E0,2.5466917E1],"tree_param":{"num_deleted":"0","num_feature":"9","num_nodes":"29","size_leaf_vector":"1"}},{"base_weights":[-3.3025663E-2,-2.2416662E-1,9.488795E-2,-2.9252437E-1,-1.3824184E-1,2.8809961E-2,2.8773645E-1,4.008247E-2,-3.0580375E-1,-2.747939E-1,-2.0674461E-2,7.283685E-2,-1.9079837E-1,-1.555873E-2,3.4289673E-1,1.0962729E-2,-3.312556E-2,-3.8376357E-2,8.317812E-3,-3.69925E-2,6.2888213E-3,-2.223785E-2,1.1549163E-2,-2.6238134E-2,6.5875635E-2,3.8407177E-2,-2.9689226E-2,-1.5336004E-2,3.7466887E-2],"categories":[],"categories_nodes":[],"categories_segments":[],"categories_sizes":[],"default_left":[0,0,0,0,0,0,0,0,0,0,0,0,0,0,0,0,0,0,0,0,0,0,0,0,0,0,0,0,0],"id":41,"left_children":[1,3,5,7,9,11,13,-1,15,17,19,21,23,25,27,-1,-1,-1,-1,-1,-1,-1,-1,-1,-1,-1,-1,-1,-1],"loss_changes":[1.4945616E1,1.3987246E0,4.6606717E0,1.3707447E0,1.7676079E0,2.6631215E0,1.567771E0,0E0,1.4487591E0,2.022164E0,1.7870476E0,2.908909E0,2.9723532E0,1.8373557E0,1.3040743E0,0E0,0E0,0E0,0E0,0E0,0E0,0E0,0E0,0E0,0E0,0E0,0E0,0E0,0E0],"parents":[2147483647,0,0,1,1,2,2,3,3,4,4,5,5,6,6,8,8,9,9,10,10,11,11,12,12,13,13,14,14],"right_children":[2,4,6,8,10,12,14,-1,16,18,20,22,24,26,28,-1,-1,-1,-1,-1,-1,-1,-1,-1,-1,-1,-1,-1,-1],"split_conditions":[-1.14963495E-5,-1.4402893E-4,3.485598E-4,-6.84E0,1.3453572E0,9E-1,-2.9347825E-1,4.008247E-2,4.3E-1,6.1E-1,3.3007E3,3.30148E3,5.88E0,-4.076923E-1,5.3E-1,1.0962729E-2,-3.312556E-2,-3.8376357E-2,8.317812E-3,-3.69925E-2,6.2888213E-3,-2.223785E-2,1.1549163E-2,-2.6238134E-2,6.5875635E-2,3.8407177E-2,-2.9689226E-2,-1.5336004E-2,3.7466887E-2],"split_indices":[5,5,5,8,6,7,4,0,3,7,0,0,8,4,3,0,0,0,0,0,0,0,0,0,0,0,0,0,0],"split_type":[0,0,0,0,0,0,0,0,0,0,0,0,0,0,0,0,0,0,0,0,0,0,0,0,0,0,0,0,0],"sum_hessian":[6.0941437E2,2.440214E2,3.6539297E2,1.3456407E2,1.0945733E2,2.7300082E2,9.239215E1,1.9803635E0,1.3258371E2,5.00213E1,5.9436024E1,2.2796661E2,4.5034218E1,1.432808E1,7.806407E1,7.4630313E0,1.25120674E2,3.8292652E1,1.1728649E1,1.0813603E1,4.862242E1,2.8247955E1,1.9971866E2,4.217199E1,2.8622313E0,5.768633E0,8.559447E0,4.4669423E0,7.359713E1],"tree_param":{"num_deleted":"0","num_feature":"9","num_nodes":"29","size_leaf_vector":"1"}},{"base_weights":[-3.88558E-2,1.1516481E-1,-1.8216096E-1,3.2750998E-2,2.2889952E-1,-2.7310535E-1,-9.795728E-2,2.7332968E-1,-4.377444E-2,2.5365072E-1,-4.926722E-1,-4.113874E-1,-1.7548224E-1,-5.3695988E-2,-4.5503178E-1,3.3540405E-2,-5.1197745E-2,3.7523896E-2,-7.873277E-3,4.7177322E-2,1.4855745E-2,-8.963092E-3,-6.529844E-2,-4.9151372E-2,-8.751982E-5,-5.856328E-3,-3.45422E-2,-1.2592454E-2,2.1876989E-2,2.001889E-2,-5.5401094E-2],"categories":[],"categories_nodes":[],"categories_segments":[],"categories_sizes":[],"default_left":[0,0,0,0,0,0,0,0,0,0,0,0,0,0,0,0,0,0,0,0,0,0,0,0,0,0,0,0,0,0,0],"id":42,"left_children":[1,3,5,7,9,11,13,15,17,19,21,23,25,27,29,-1,-1,-1,-1,-1,-1,-1,-1,-1,-1,-1,-1,-1,-1,-1,-1],"loss_changes":[1.3324889E1,2.7213297E0,2.3672829E0,3.141255E0,2.3065915E0,1.9491901E0,2.5657392E0,2.1780274E0,1.931103E0,2.6523232E0,2.2518408E-1,2.013301E0,1.7583871E0,2.9194374E0,1.2744074E0,0E0,0E0,0E0,0E0,0E0,0E0,0E0,0E0,0E0,0E0,0E0,0E0,0E0,0E0,0E0,0E0],"parents":[2147483647,0,0,1,1,2,2,3,3,4,4,5,5,6,6,7,7,8,8,9,9,10,10,11,11,12,12,13,13,14,14],"right_children":[2,4,6,8,10,12,14,16,18,20,22,24,26,28,30,-1,-1,-1,-1,-1,-1,-1,-1,-1,-1,-1,-1,-1,-1,-1,-1],"split_conditions":[-5.1321636E-5,3.33098E3,1E-2,9.1E-1,4.155857E0,1.12E0,1.85E0,3.32E0,3.2893E3,-3.6013403E-4,3.33687E3,2.1317143E0,2.1606222E-4,2.0387857E0,1.6E-1,3.3540405E-2,-5.1197745E-2,3.7523896E-2,-7.873277E-3,4.7177322E-2,1.4855745E-2,-8.963092E-3,-6.529844E-2,-4.9151372E-2,-8.751982E-5,-5.856328E-3,-3.45422E-2,-1.2592454E-2,2.1876989E-2,2.001889E-2,-5.5401094E-2],"split_indices":[5,2,7,3,6,3,7,8,2,5,0,6,5,6,8,0,0,0,0,0,0,0,0,0,0,0,0,0,0,0,0],"split_type":[0,0,0,0,0,0,0,0,0,0,0,0,0,0,0,0,0,0,0,0,0,0,0,0,0,0,0,0,0,0,0],"sum_hessian":[6.01752E2,2.9012726E2,3.1162476E2,1.6897414E2,1.2115313E2,1.4873727E2,1.6288747E2,4.0157207E1,1.2881694E2,1.1776215E2,3.3909755E0,6.0220947E1,8.8516335E1,1.4594695E2,1.6940527E1,3.7746452E1,2.4107554E0,9.170051E0,1.1964688E2,3.7155766E1,8.0606384E1,1.4086323E0,1.9823432E0,5.0221153E1,9.999794E0,5.323508E1,3.5281254E1,1.1578981E2,3.0157133E1,2.0890338E0,1.4851493E1],"tree_param":{"num_deleted":"0","num_feature":"9","num_nodes":"31","size_leaf_vector":"1"}},{"base_weights":[6.115862E-2,2.888037E-1,3.5894576E-2,3.075277E-1,-3.9984416E-2,5.1668577E-2,-2.4085744E-1,3.5881793E-1,-1.7660772E-2,5.901842E-2,-4.257758E-1,-5.1087785E-1,-1.1914485E-1,2.715828E-2,6.16676E-2,3.467853E-2,-4.497391E-2,1.1026145E-2,-4.2446298E-4,-5.1853806E-2,1.3102189E-2,-6.0168374E-2,1.3470265E-2,2.3992158E-2,-2.8066313E-2],"categories":[],"categories_nodes":[],"categories_segments":[],"categories_sizes":[],"default_left":[0,0,0,0,0,0,0,0,0,0,0,0,0,0,0,0,0,0,0,0,0,0,0,0,0],"id":43,"left_children":[1,3,5,7,-1,9,11,13,15,17,19,21,23,-1,-1,-1,-1,-1,-1,-1,-1,-1,-1,-1,-1],"loss_changes":[3.9681845E0,1.0121737E0,2.7356844E0,1.1355338E0,0E0,2.0990179E0,1.0504469E0,1.1490035E0,1.7584571E0,1.8901563E0,5.3700745E-1,6.7912483E-1,1.4947585E0,0E0,0E0,0E0,0E0,0E0,0E0,0E0,0E0,0E0,0E0,0E0,0E0],"parents":[2147483647,0,0,1,1,2,2,3,3,5,5,6,6,7,7,8,8,9,9,10,10,11,11,12,12],"right_children":[2,4,6,8,-1,10,12,14,16,18,20,22,24,-1,-1,-1,-1,-1,-1,-1,-1,-1,-1,-1,-1],"split_conditions":[9.039286E-1,3.35202E3,2.809E0,1.7983538E-4,-3.9984416E-2,7.4174214E-4,-3.5714287E-1,8.7E-1,1.9E-1,-1.908397E-2,3.42E0,3.33814E3,-1.2745099E-1,2.715828E-2,6.16676E-2,3.467853E-2,-4.497391E-2,1.1026145E-2,-4.2446298E-4,-5.1853806E-2,1.3102189E-2,-6.0168374E-2,1.3470265E-2,2.3992158E-2,-2.8066313E-2],"split_indices":[6,0,6,5,0,5,4,8,7,4,8,0,4,0,0,0,0,0,0,0,0,0,0,0,0],"split_type":[0,0,0,0,0,0,0,0,0,0,0,0,0,0,0,0,0,0,0,0,0,0,0,0,0],"sum_hessian":[6.907732E2,6.79619E1,6.228113E2,6.6701744E1,1.2601538E0,5.8999664E2,3.2814663E1,5.7525192E1,9.176554E0,5.81915E2,8.081685E0,9.202166E0,2.3612497E1,4.451776E1,1.3007429E1,5.084945E0,4.0916085E0,3.2108963E2,2.6082532E2,6.9864573E0,1.0952275E0,8.127032E0,1.0751336E0,7.175483E0,1.6437016E1],"tree_param":{"num_deleted":"0","num_feature":"9","num_nodes":"25","size_leaf_vector":"1"}},{"base_weights":[-3.1221975E-2,-2.1317446E-1,8.856181E-2,-2.7978158E-1,-1.3081627E-1,-2.5313145E-3,2.113706E-1,1.1329259E-1,-3.0413416E-1,-2.5548053E-1,-1.0311428E-2,4.840894E-2,-2.629721E-1,1.6240351E-1,4.8821473E-1,-4.5701243E-2,4.1329827E-2,1.9796908E-2,-3.29665E-2,8.98677E-3,-3.5047602E-2,-3.552593E-2,7.640173E-3,9.393679E-3,-2.9572373E-2,-3.2575514E-2,5.5818018E-2,8.679261E-3,3.533835E-2,5.6661792E-2,1.2196572E-2],"categories":[],"categories_nodes":[],"categories_segments":[],"categories_sizes":[],"default_left":[0,0,0,0,0,0,0,0,0,0,0,0,0,0,0,0,0,0,0,0,0,0,0,0,0,0,0,0,0,0,0],"id":44,"left_children":[1,3,5,7,9,11,13,15,17,19,21,23,25,27,29,-1,-1,-1,-1,-1,-1,-1,-1,-1,-1,-1,-1,-1,-1,-1,-1],"loss_changes":[1.32035675E1,1.2823925E0,4.0893717E0,1.2985439E0,1.6406708E0,2.809842E0,2.0309343E0,1.6316744E0,1.6628218E0,1.7940035E0,1.7220563E0,2.8038754E0,1.9680207E0,1.9009519E0,5.8837366E-1,0E0,0E0,0E0,0E0,0E0,0E0,0E0,0E0,0E0,0E0,0E0,0E0,0E0,0E0,0E0,0E0],"parents":[2147483647,0,0,1,1,2,2,3,3,4,4,5,5,6,6,7,7,8,8,9,9,10,10,11,11,12,12,13,13,14,14],"right_children":[2,4,6,8,10,12,14,16,18,20,22,24,26,28,30,-1,-1,-1,-1,-1,-1,-1,-1,-1,-1,-1,-1,-1,-1,-1,-1],"split_conditions":[-1.14963495E-5,-1.4402893E-4,2.3784624E-4,4.3E-1,1.379E0,9E-1,6.515496E-4,3.3E-1,-4.2391303E-1,3.30954E3,3.3007E3,3.34608E3,3.34424E3,1.5E-1,1.25E0,-4.5701243E-2,4.1329827E-2,1.9796908E-2,-3.29665E-2,8.98677E-3,-3.5047602E-2,-3.552593E-2,7.640173E-3,9.393679E-3,-2.9572373E-2,-3.2575514E-2,5.5818018E-2,8.679261E-3,3.533835E-2,5.6661792E-2,1.2196572E-2],"split_indices":[5,5,5,3,6,7,5,3,4,0,0,2,0,4,7,0,0,0,0,0,0,0,0,0,0,0,0,0,0,0,0],"split_type":[0,0,0,0,0,0,0,0,0,0,0,0,0,0,0,0,0,0,0,0,0,0,0,0,0,0,0,0,0,0,0],"sum_hessian":[6.0394214E2,2.3944449E2,3.6449768E2,1.3105595E2,1.08388535E2,2.0983354E2,1.5466412E2,7.4327087E0,1.23623245E2,5.272429E1,5.5664246E1,1.7618684E2,3.3646694E1,1.3276738E2,2.1896746E1,2.3817334E0,5.0509753E0,5.6549864E0,1.1796826E2,1.138587E1,4.1338417E1,1.0559853E1,4.5104393E1,1.562433E2,1.9943542E1,3.1817326E1,1.8293698E0,9.615364E1,3.661374E1,1.758519E1,4.311557E0],"tree_param":{"num_deleted":"0","num_feature":"9","num_nodes":"31","size_leaf_vector":"1"}},{"base_weights":[-3.6625292E-2,1.4144014E-1,-1.4683293E-1,5.02865E-1,1.21004745E-1,-8.074015E-2,-2.456423E-1,-3.292115E-2,6.4806783E-1,2.8332712E-2,1.9125016E-1,2.050044E-1,-1.1047153E-1,-2.934183E-1,3.6639728E-2,1.9263325E-2,6.938075E-2,-4.1284475E-2,8.472206E-3,2.1099035E-2,-4.5850124E-2,-3.1460475E-2,5.6058742E-2,-5.0437845E-2,-6.119288E-3,-5.0294586E-2,-2.4189416E-2,3.4499284E-2,-3.388621E-2],"categories":[],"categories_nodes":[],"categories_segments":[],"categories_sizes":[],"default_left":[0,0,0,0,0,0,0,0,0,0,0,0,0,0,0,0,0,0,0,0,0,0,0,0,0,0,0,0,0],"id":45,"left_children":[1,3,5,7,9,11,13,-1,15,17,19,21,23,25,27,-1,-1,-1,-1,-1,-1,-1,-1,-1,-1,-1,-1,-1,-1],"loss_changes":[1.1754022E1,1.6311588E0,2.395247E0,1.6562815E0,1.4146566E0,1.9178423E0,2.003088E0,0E0,8.518839E-2,2.4041252E0,1.6860728E0,4.125495E0,3.903907E0,1.2435398E0,2.695834E0,0E0,0E0,0E0,0E0,0E0,0E0,0E0,0E0,0E0,0E0,0E0,0E0,0E0,0E0],"parents":[2147483647,0,0,1,1,2,2,3,3,4,4,5,5,6,6,8,8,9,9,10,10,11,11,12,12,13,13,14,14],"right_children":[2,4,6,8,10,12,14,-1,16,18,20,22,24,26,28,-1,-1,-1,-1,-1,-1,-1,-1,-1,-1,-1,-1,-1,-1],"split_conditions":[-1.21735844E-4,-9.027529E-4,1.3559431E-4,1.3453572E0,3.32143E3,3.29556E3,2.5049286E0,-3.292115E-2,-1.73E0,1.1437857E0,4.155857E0,3.29005E3,3.30436E3,1.8588798E-4,1E-2,1.9263325E-2,6.938075E-2,-4.1284475E-2,8.472206E-3,2.1099035E-2,-4.5850124E-2,-3.1460475E-2,5.6058742E-2,-5.0437845E-2,-6.119288E-3,-5.0294586E-2,-2.4189416E-2,3.4499284E-2,-3.388621E-2],"split_indices":[5,5,5,6,2,0,6,0,7,6,6,1,0,5,8,0,0,0,0,0,0,0,0,0,0,0,0,0,0],"split_type":[0,0,0,0,0,0,0,0,0,0,0,0,0,0,0,0,0,0,0,0,0,0,0,0,0,0,0,0,0],"sum_hessian":[5.9689813E2,2.2808755E2,3.6881058E2,1.0942819E1,2.1714473E2,2.2208012E2,1.4673044E2,1.4375824E0,9.505236E0,9.4231766E1,1.2291297E2,2.0373903E1,2.0170622E2,1.2545742E2,2.1273012E1,1.343125E0,8.162111E0,9.962908E0,8.426886E1,1.1994421E2,2.9687648E0,8.324563E0,1.2049341E1,2.1401217E1,1.8030501E2,2.3032469E1,1.0242496E2,1.1725533E1,9.547479E0],"tree_param":{"num_deleted":"0","num_feature":"9","num_nodes":"29","size_leaf_vector":"1"}},{"base_weights":[5.7197753E-2,1.00414224E-1,-6.065709E-2,4.507002E-1,8.5382044E-2,1.6528532E-1,-1.1919163E-1,5.827447E-1,-5.8476806E-2,1.02091014E-1,-1.970171E-1,4.6342528E-1,-5.877398E-2,-3.9208066E-1,-7.247538E-2,3.0337254E-2,7.363679E-2,5.3772E-2,-4.4233866E-2,1.2167711E-3,1.6334405E-2,6.480292E-2,-2.7026836E-2,5.789091E-2,-4.131854E-2,-1.5231672E-2,8.322505E-2,2.845912E-4,-5.8503013E-2,1.1818896E-2,-1.7924553E-2],"categories":[],"categories_nodes":[],"categories_segments":[],"categories_sizes":[],"default_left":[0,0,0,0,0,0,0,0,0,0,0,0,0,0,0,0,0,0,0,0,0,0,0,0,0,0,0,0,0,0,0],"id":46,"left_children":[1,3,5,7,9,11,13,15,17,19,21,23,25,27,29,-1,-1,-1,-1,-1,-1,-1,-1,-1,-1,-1,-1,-1,-1,-1,-1],"loss_changes":[3.523805E0,2.6244574E0,2.4787283E0,1.4174876E0,2.3140683E0,2.6108785E0,1.8615918E0,4.8175478E-1,1.4155442E0,2.5298123E0,1.8773516E0,1.9305689E0,2.0412202E0,1.6356747E0,2.623079E0,0E0,0E0,0E0,0E0,0E0,0E0,0E0,0E0,0E0,0E0,0E0,0E0,0E0,0E0,0E0,0E0],"parents":[2147483647,0,0,1,1,2,2,3,3,4,4,5,5,6,6,7,7,8,8,9,9,10,10,11,11,12,12,13,13,14,14],"right_children":[2,4,6,8,10,12,14,16,18,20,22,24,26,28,30,-1,-1,-1,-1,-1,-1,-1,-1,-1,-1,-1,-1,-1,-1,-1,-1],"split_conditions":[1.9186429E0,8.0221426E-1,3.29974E3,1.5592603E-4,4.0207183E-4,-2.7222126E-5,-4.6817464E-4,1.04E0,-4E-2,-5.7674388E-5,-3.34E0,3.318584E-1,2.38E0,-2.5420874E-1,-8.416028E-5,3.0337254E-2,7.363679E-2,5.3772E-2,-4.4233866E-2,1.2167711E-3,1.6334405E-2,6.480292E-2,-2.7026836E-2,5.789091E-2,-4.131854E-2,-1.5231672E-2,8.322505E-2,2.845912E-4,-5.8503013E-2,1.1818896E-2,-1.7924553E-2],"split_indices":[6,6,2,5,5,5,5,3,7,5,8,4,8,4,5,0,0,0,0,0,0,0,0,0,0,0,0,0,0,0,0],"split_type":[0,0,0,0,0,0,0,0,0,0,0,0,0,0,0,0,0,0,0,0,0,0,0,0,0,0,0,0,0,0,0],"sum_hessian":[6.8965924E2,5.0472754E2,1.8493173E2,1.9576054E1,4.851515E2,3.7676666E1,1.4725507E2,1.5430093E1,4.14596E0,4.5865244E2,2.6499037E1,1.5707493E1,2.1969172E1,2.0443462E1,1.268116E2,6.5298986E0,8.900194E0,1.4668691E0,2.6790907E0,1.8632065E2,2.7233182E2,1.4878725E0,2.5011164E1,1.4179151E1,1.5283421E0,2.0632189E1,1.3369821E0,7.033215E0,1.3410248E1,4.5483208E1,8.132839E1],"tree_param":{"num_deleted":"0","num_feature":"9","num_nodes":"31","size_leaf_vector":"1"}},{"base_weights":[-2.9348077E-2,-2.0268036E-1,8.290242E-2,-3.649905E-1,-1.6907388E-1,2.487508E-2,2.5440675E-1,-1.5106705E-1,-5.512514E-1,6.568942E-1,-1.9279574E-1,9.6847555E-3,6.289602E-1,-7.262949E-2,3.0596745E-1,-4.7484662E-2,1.6169475E-2,1.7615331E-2,-5.969988E-2,-3.454693E-2,1.0497053E-1,-2.603357E-2,-3.2239184E-3,3.7084103E-3,-5.323538E-2,-5.1596146E-3,8.1821635E-2,-3.8895145E-2,4.5902327E-2,3.477452E-2,-4.8635756E-3],"categories":[],"categories_nodes":[],"categories_segments":[],"categories_sizes":[],"default_left":[0,0,0,0,0,0,0,0,0,0,0,0,0,0,0,0,0,0,0,0,0,0,0,0,0,0,0,0,0,0,0],"id":47,"left_children":[1,3,5,7,9,11,13,15,17,19,21,23,25,27,29,-1,-1,-1,-1,-1,-1,-1,-1,-1,-1,-1,-1,-1,-1,-1,-1],"loss_changes":[1.1688875E1,1.2260637E0,3.624295E0,1.4959631E0,3.9954286E0,2.50541E0,1.5755658E0,2.0843408E0,7.976332E-1,2.62248E0,2.0813837E0,3.9999144E0,9.049027E-1,2.4243007E0,1.198607E0,0E0,0E0,0E0,0E0,0E0,0E0,0E0,0E0,0E0,0E0,0E0,0E0,0E0,0E0,0E0,0E0],"parents":[2147483647,0,0,1,1,2,2,3,3,4,4,5,5,6,6,7,7,8,8,9,9,10,10,11,11,12,12,13,13,14,14],